svm_type c_svc
kernel_type rbf
gamma 0
nr_class 2
total_sv 12
rho 1
label 0 1
nr_sv 6 6
SV
4 1:-0.025458116 2:-0.012120193 3:-0.014598183 4:-0.034115206 5:0.0060325782 6:-0.02745669 7:-0.05577803 8:0.010202153 9:0.091030955 10:-0.017388979 11:-0.017097987 12:0.035003457 13:0.0035014139 14:-0.032744564 15:0.010056259 16:0.069062941 17:0.062889069 18:0.021399854 19:0.022093972 20:0.045023687 21:0.050605707 22:0.005442387 23:0.0046917656 24:0.057799019 25:0.02123672 26:-0.014245681 27:-0.015115336 28:0.058549952 29:-0.010865256 30:0.047141805 31:-0.0080173863 32:-0.0032216681 33:-0.0058277375 34:0.029930256 35:0.1089268 36:0.044119187 37:-0.031437535 38:-0.046614312 39:-5.5017666e-05 40:0.089022219 41:0.066041999 42:-0.014959357 43:0.024906855 44:-0.056795835 45:-0.079601698 46:0.021707844 47:-0.023361608 48:0.0065976013 49:-0.052906748 50:0.056027498 51:0.039558448 52:0.013340515 53:0.024087152 54:0.0083300406 55:-0.0060097747 56:-0.032375392 57:0.00097968709 58:0.010885443 59:0.029461859 60:0.04726864 61:-0.010953264 62:0.069284521 63:-0.0065637473 64:0.035553146 65:-0.02417784 66:0.008010379 67:0.00052931817 68:0.018726096 69:0.010763881 70:-0.024117382 71:0.036692858 72:-0.059613615 73:-0.040345069 74:-0.0082701389 75:0.019830318 76:0.011603215 77:-0.034011241 78:0.077054046 79:-0.012478131 80:-0.027685309 81:0.0076093427 82:-0.058606446 83:-0.048194632 84:-0.023890937 85:0.024979878 86:-0.087867744 87:0.035580214 88:0.053646851 89:-0.035523444 90:0.017930789 91:0.031905748 92:0.028946673 93:0.033432707 94:-0.04222513 95:0.02492715 96:-0.01134383 97:0.012652337 98:-0.020068601 99:-0.040759146 100:0.0344107 101:0.0052791815 102:0.055293459 103:-0.019193007 104:0.044796444 105:0.031042431 106:-0.0024936886 107:0.049486849 108:0.060057741 109:0.083887845 110:0.080474615 111:-0.0034827581 112:-0.037822321 113:0.00041059524 114:-0.0048873806 115:-0.012788834 116:-0.028553046 117:-0.036252193 118:0.052348644 119:-0.031990048 120:0.01363009 121:0.008825344 122:0.019429836 123:-0.037389681 124:-0.058124896 125:0.036092371 126:0.053863678 127:-0.031351004 128:0.020868629 129:-0.087593034 130:-0.0022541636 131:-0.075961135 132:-0.0024000423 133:0.0098064747 134:-0.1202785 135:0.013132297 136:0.075779088 137:-0.0035666579 138:0.0074967691 139:0.01473628 140:0.0062702643 141:0.054053001 142:-0.10123589 143:0.010295644 144:0.017795902 145:-0.0040216912 146:-0.081380434 147:-0.072985016 148:0.070976317 149:0.025242485 150:-0.068049021 151:0.032319106 152:-0.005589202 153:0.050878596 154:0.043714866 155:0.011127831 156:-0.033063266 157:0.020176817 158:0.059056193 159:-0.0053807073 160:0.010569235 161:-0.022484105 162:0.032688443 163:-0.040522706 164:0.072967969 165:0.10490126 166:0.0062319613 167:0.021890488 168:-0.029145414 169:-0.014387756 170:-0.013069432 171:-0.039022066 172:-0.0030551611 173:-0.021141281 174:-0.025699902 175:0.071399651 176:-0.028280968 177:0.017924875 178:-0.035520442 179:-0.068897173 180:-0.071843326 181:-0.14895888 182:0.049063269 183:-0.038552843 184:0.0029523366 185:-0.068189591 186:0.039219029 187:-0.030997111 188:-0.010949281 189:-0.084119909 190:0.0028267715 191:0.069103286 192:-0.0011169218 193:0.089383468 194:-0.043624222 195:0.0026722918 196:-0.053553142 197:0.0081878072 198:0.05337549 199:0.0028047091 200:-0.025152307 201:0.016665602 202:0.02022529 203:0.03970249 204:-0.013176833 205:0.035313435 206:-0.0095563196 207:-0.032589521 208:-0.021052368 209:-0.043405861 210:0.043322906 211:-0.021423237 212:0.012273985 213:-0.042458646 214:-0.018900292 215:0.038214348 216:-0.043501128 217:0.020563504 218:0.026536521 219:0.020325866 220:-0.039239429 221:0.024047861 222:-0.018862199 223:-0.01634606 224:-0.052022699 225:0.02057961 226:-0.018667251 227:0.018839369 228:-0.013433829 229:-0.061020084 230:0.069732919 231:0.053324301 232:-0.019861136 233:0.017500389 234:-0.017248243 235:0.1066346 236:0.025527164 237:-0.007215675 238:-0.030779231 239:-0.070264831 240:0.0078292722 241:-0.047944091 242:0.024391772 243:0.0970667 244:0.022241795 245:0.056038421 246:0.069248855 247:0.030147612 248:0.076241814 249:0.020618765 250:-0.012179952 251:-0.030561173 252:-0.0083847158 253:0.03481273 254:-0.0067098397 255:0.0083671752 256:-0.018794393 257:0.033240207 258:-0.057459317 259:-0.027679531 260:0.083639279 261:-0.052019168 262:-0.069301292 263:0.013092221 264:-0.060614292 265:-0.027192259 266:-0.088923104 267:-0.055312108 268:0.067111 269:-0.056819335 270:0.016537245 271:-0.032980077 272:-0.025358925 273:-0.004462284 274:0.034269374 275:-0.0031241558 276:-0.04933333 277:-0.049102526 278:-0.031367287 279:-0.088740036 280:-0.045094974 281:-0.052468278 282:0.0059038778 283:0.077436112 284:0.023367839 285:-0.03995141 286:-0.05904869 287:0.037031773 288:-0.04015661 289:-0.073854372 290:-0.034301244 291:0.00028381683 292:0.050701037 293:0.0174066 294:-0.084364973 295:0.035906829 296:-0.038356662 297:0.11152179 298:0.0043576146 299:-0.018065603 300:0.033977121 301:0.053124804 302:-0.035858225 303:-0.06733948 304:0.028659442 305:-0.01327034 306:0.027328108 307:-0.016692655 308:-0.026338039 309:0.09458562 310:-0.063537501 311:-0.031749319 312:-0.028213546 313:-0.063930325 314:-0.028389161 315:0.016871789 316:-0.01433826 317:0.021161741 318:-0.011835682 319:0.085412495 320:-0.12928267 321:-0.013529892 322:-0.035637382 323:-0.047720924 324:-0.022467537 325:-0.076117754 326:0.097664192 327:-0.00034993707 328:0.059842009 329:0.011279759 330:0.072621264 331:-0.033463884 332:0.0013921562 333:-0.019235607 334:-0.02225587 335:0.061045188 336:0.034323037 337:0.005341385 338:0.033063702 339:-0.056006908 340:0.047501519 341:-0.028180612 342:-0.06140846 343:0.0081634745 344:-0.018807314 345:0.069388099 346:-0.023437984 347:0.072360389 348:0.070226818 349:-0.017924624 350:0.011094544 351:-0.0014260174 352:0.024027331 353:-0.049483567 354:0.069780797 355:-0.030281249 356:-0.052572537 357:0.062457126 358:-0.016119367 359:0.015686013 360:0.00040050191 361:0.058543909 362:0.066919588 363:-0.070823126 364:-0.06770023 365:-0.031704262 366:0.062853172 367:-0.034106869 368:0.042280708 369:-0.013024315 370:-0.030771023 371:-0.073684968 372:0.047755279 373:-0.029877199 374:0.050787777 375:0.031855166 376:0.016601384 377:0.018039167 378:-0.031218108 379:0.023723446 380:0.042319626 381:0.00092205108 382:0.048122909 383:-0.0015511014 384:0.006020756 385:0.046789974 386:-0.030845335 387:-0.014937242 388:0.0061394046 389:-0.016035005 390:-0.010652076 391:0.016100986 392:0.11342453 393:-0.011596785 394:-0.01752279 395:0.0057236366 396:-0.081371747 397:-0.021519998 398:0.0021877415 399:0.046206068 400:0.047489811 401:0.079750016 402:-0.032708772 403:0.034574997 404:-0.036853828 405:-0.03465765 406:-0.045154318 407:0.077414654 408:0.012686109 409:0.058140777 410:-0.073269352 411:0.029550042 412:-0.0077803675 413:0.045963977 414:-0.016528884 415:-0.12171017 416:-0.065018617 417:-0.0080580544 418:-0.065886967 419:0.0085668257 420:-0.022485524 421:0.085245676 422:-0.0052190921 423:-0.056130432 424:0.046978947 425:0.01978755 426:-0.03568333 427:0.054990739 428:-0.061580233 429:-0.052472461 430:-0.0032225566 431:-0.0042029391 432:0.0083507895 433:0.046882886 434:0.00058795215 435:0.091441743 436:-0.0015104403 437:0.059417047 438:-0.019130789 439:-0.071938396 440:-0.057657931 441:-0.01594278 442:-0.025849711 443:0.084910788 444:0.038291205 445:0.014435666 446:-0.022758396 447:-0.0063312193 448:0.0083808796 449:0.022556793 450:0.061556619 451:-0.047648642 452:-0.062696673 453:0.024692625 454:0.043413464 455:-0.0052159675 456:0.049134478 457:-0.033697132 458:0.0087604513 459:-0.035086233 460:0.031611234 461:-0.0068837497 462:-0.029821407 463:-0.050869118 464:-0.056330029 465:0.056999866 466:0.017510666 467:-0.0085108904 468:-0.089245662 469:-0.04528771 470:0.041849028 471:0.026029414 472:0.003085501 473:-0.034218974 474:0.015178724 475:-0.010767476 476:0.12765148 477:-0.0050091217 478:0.019565146 479:0.023941932 480:-0.032877393 481:0.056568611 482:-0.05169953 483:0.011627394 484:0.0084121088 485:-0.0047343075 486:0.0086754551 487:-0.0036223286 488:-0.0013309963 489:-0.018511461 490:-0.038410399 491:0.01425009 492:0.014578907 493:0.032541551 494:0.057354391 495:0.076309256 496:0.069307975 497:-0.039611716 498:-0.018096393 499:-0.024277853 500:-0.020290898 501:-0.053700991 502:0.015263668 503:0.028551171 504:-0.012076337 505:0.079743683 506:-0.058519516 507:-0.012983943 508:0.00062193553 509:-0.013847093 510:0.043297086 511:0.010436852 512:-0.0043365853 
4 1:0.030747386 2:-0.029433291 3:-0.03629522 4:-0.10481357 5:-0.033721656 6:-0.051417865 7:-0.027718643 8:0.061199259 9:0.056035522 10:-0.040653925 11:-0.069007374 12:-0.0073335241 13:-0.0050799609 14:-0.021304835 15:0.013900317 16:-0.018031264 17:0.045479167 18:0.037057918 19:0.012307486 20:0.023625558 21:0.057294868 22:0.02491793 23:0.016092299 24:0.023947608 25:0.014409006 26:-0.020380199 27:-0.029493898 28:0.019150939 29:-0.0027933354 30:0.071876168 31:0.053129707 32:-0.020959448 33:0.010399829 34:0.015612268 35:0.11364152 36:0.012687451 37:-0.077848367 38:0.0079829097 39:0.039660841 40:0.042599827 41:0.028518349 42:-0.043906566 43:-0.0073789493 44:0.010712021 45:-0.055509791 46:-0.0076692323 47:-0.087302268 48:-0.035858523 49:-0.07377445 50:0.01367169 51:0.031707812 52:0.0086151809 53:0.018214887 54:0.037781741 55:-0.062612891 56:-0.0096815359 57:0.013839104 58:-0.01114869 59:-0.0063424697 60:0.057512801 61:-0.043764494 62:0.059033241 63:-0.019142738 64:0.036295488 65:-0.038798917 66:-0.031086141 67:0.012207649 68:0.043671388 69:0.029728647 70:-0.028534919 71:0.0078496672 72:-0.070451096 73:-0.029014371 74:-0.080621257 75:0.0053145117 76:-0.010778866 77:-0.021567967 78:0.014537523 79:-0.002699265 80:-0.013883797 81:-0.041549262 82:-0.056123279 83:0.016346959 84:-0.021196341 85:-0.024669111 86:-0.089684114 87:-0.0091391839 88:0.016353669 89:-0.0054834858 90:0.02505335 91:0.023611987 92:-0.001815276 93:0.04049715 94:-0.037679929 95:0.019570649 96:-0.056775443 97:-0.038849022 98:-0.052807685 99:-0.091459222 100:-0.0034115221 101:0.035016324 102:0.089031436 103:0.045653861 104:0.082856007 105:0.068106376 106:0.040885039 107:0.021925913 108:0.067840114 109:0.056352057 110:0.039722994 111:-0.045589872 112:0.024356892 113:0.0022239203 114:-0.027696339 115:-0.001693129 116:-0.040690288 117:-0.053118534 118:0.055816561 119:-0.020633459 120:-0.024090009 121:0.010070024 122:0.023547539 123:-0.05845771 124:-0.017893285 125:-0.0080153411 126:0.10814415 127:-0.089090832 128:0.022791211 129:-0.030140532 130:0.015758766 131:-0.084153652 132:0.055964857 133:-0.026379528 134:-0.095153347 135:0.089708842 136:0.045189332 137:-0.0035986388 138:-0.018613009 139:-0.0039038539 140:-0.012685264 141:-0.022262139 142:-0.066039145 143:-0.030977853 144:-0.013419005 145:-0.024531862 146:-0.045635894 147:-0.028888248 148:-0.0075113662 149:0.0064497814 150:-0.022421038 151:0.010358756 152:-0.052208595 153:0.063030012 154:0.0022958436 155:0.030544091 156:-0.023248678 157:0.016403414 158:0.037306711 159:0.019718863 160:0.0015796364 161:-0.036473803 162:-0.013568899 163:-0.068295844 164:0.022057002 165:0.12552494 166:0.031091193 167:0.036296811 168:0.010572173 169:-0.026098263 170:-0.0071240594 171:-0.0026747903 172:-0.00073835778 173:-0.052947305 174:0.019753464 175:0.011508573 176:-0.035277165 177:-0.0039591989 178:-0.044552352 179:-0.044379015 180:-0.070911892 181:-0.073269106 182:0.06631346 183:-0.014112424 184:-0.040702142 185:-0.0077730245 186:0.040049057 187:-0.015673017 188:-0.041481767 189:-0.067768462 190:-0.055479281 191:0.10058033 192:-0.065873794 193:0.039668493 194:-0.030317798 195:0.02380849 196:-0.067141585 197:-0.016283147 198:0.069603443 199:0.0064325859 200:-0.0085459054 201:0.011815201 202:0.065144077 203:0.033070225 204:-0.008334714 205:0.0080366563 206:0.016698295 207:-0.0045771291 208:-0.028790673 209:0.0056436569 210:0.04109253 211:0.016025653 212:0.028472023 213:-0.073979057 214:0.018736172 215:0.014278773 216:-0.08156772 217:0.030593393 218:0.012009325 219:0.075537659 220:-0.034549955 221:0.025054432 222:0.015945917 223:-0.027846577 224:-0.010172002 225:0.011160356 226:-0.052947272 227:0.023808232 228:-0.017213993 229:-0.067627728 230:0.032552805 231:0.021801198 232:-0.015365339 233:0.019719167 234:0.017662015 235:0.1067473 236:-0.00036640358 237:-0.038362172 238:-0.053061754 239:-0.048922218 240:-0.040652469 241:-0.034738734 242:-0.036035892 243:0.095316291 244:0.0086964117 245:0.052904896 246:0.059299953 247:0.058951896 248:0.072000377 249:-0.015531241 250:-0.014837222 251:0.011581876 252:-0.012789507 253:0.012715559 254:-0.031317204 255:-0.0024083301 256:-0.083268188 257:0.12982196 258:-0.049148232 259:-0.053011648 260:0.013498567 261:0.024011575 262:-0.061579674 263:0.0014846644 264:-0.014286477 265:0.011048825 266:-0.048477627 267:-0.023857934 268:0.030117242 269:-0.077358685 270:0.052379504 271:-0.045965999 272:-0.052667603 273:0.02363817 274:0.0090879379 275:-0.010583792 276:-0.015870711 277:0.014328415 278:-0.053474046 279:-0.086783737 280:-0.11410807 281:-0.048650607 282:0.0047196555 283:0.085452653 284:0.0092613939 285:-0.066220365 286:-0.028782461 287:0.028470879 288:-0.065796942 289:-0.041881576 290:-0.02691054 291:-0.028247606 292:0.028558036 293:0.0010688915 294:-0.12292816 295:0.020656813 296:-0.021649851 297:0.10907757 298:-0.03803077 299:-0.039907154 300:0.060617257 301:0.04067979 302:-0.055983528 303:-0.061340228 304:-0.035898499 305:-0.046620648 306:0.007475032 307:-0.015642557 308:-0.047611155 309:0.086846069 310:-0.013888642 311:-0.04085597 312:-0.057131041 313:-0.048447777 314:-0.022867111 315:-0.011054148 316:-0.063124798 317:-0.025363568 318:-0.029202627 319:0.080656081 320:-0.10361325 321:-0.049147058 322:-0.029424978 323:-0.020301731 324:-0.035103839 325:-0.058406964 326:0.06366986 327:0.012561352 328:0.017648214 329:0.011029273 330:0.013139655 331:-0.017961795 332:-0.011709293 333:-0.039413977 334:0.014093503 335:0.061377045 336:-0.022910098 337:0.0003351651 338:0.024378691 339:-0.048731223 340:0.0073347907 341:-0.051710382 342:-0.063106827 343:0.02955048 344:-0.016917927 345:0.014490915 346:-0.0055317073 347:0.085370667 348:0.023050319 349:-0.032811858 350:0.0059861308 351:-0.0010560704 352:0.032802962 353:-0.018018439 354:-0.0089676538 355:0.0028170329 356:-0.029088004 357:0.024542881 358:-0.0069381804 359:-0.039273113 360:-0.042114101 361:0.050416131 362:0.071260363 363:-0.062666513 364:0.0039030148 365:0.015995581 366:0.017314078 367:0.032975461 368:0.073156223 369:0.0097393198 370:-0.03600172 371:-0.063165464 372:0.016578112 373:0.03619102 374:0.025271125 375:-0.025157791 376:-0.028356967 377:0.0089061027 378:-0.016065346 379:0.021631371 380:0.0090780295 381:0.046616811 382:0.024868319 383:-0.012074416 384:-0.00029670057 385:-0.0021770783 386:0.0028735085 387:0.011109429 388:-0.012904342 389:-0.035882045 390:-0.015420262 391:0.034228168 392:0.079476148 393:-0.058729582 394:0.022269718 395:0.027882084 396:-0.044670865 397:-0.040372659 398:0.02241743 399:0.030987723 400:0.032938067 401:0.065081857 402:-0.011958485 403:0.04146181 404:0.0025996855 405:-0.029718187 406:-0.033780769 407:0.054978985 408:-0.011715977 409:0.007974037 410:-0.067189112 411:-0.0063320445 412:0.062764466 413:-0.0093672816 414:-0.00043356451 415:-0.10760704 416:-0.078852057 417:-0.0021596493 418:-0.094803132 419:0.069959372 420:-0.053719718 421:0.029554719 422:0.0084889652 423:-0.082692564 424:0.010921608 425:0.036968593 426:-0.057957113 427:0.012600815 428:-0.0517492 429:-0.052830648 430:0.011212764 431:-0.005940096 432:-0.030958911 433:0.02764936 434:0.010984943 435:0.070602819 436:-0.02703345 437:0.098961256 438:0.022987049 439:-0.016297821 440:-0.025651576 441:-0.018585026 442:-0.050827749 443:0.076648407 444:-0.014566081 445:0.028981462 446:0.016148133 447:-0.014124983 448:-0.034088492 449:0.035733689 450:0.054398768 451:-0.069707349 452:0.015337851 453:-0.018615304 454:0.035318304 455:-0.045777012 456:0.035937853 457:-0.092939578 458:0.040515218 459:-0.050245948 460:0.059073854 461:-0.0072076991 462:-0.041685462 463:-0.024131566 464:-0.062997952 465:0.043461576 466:0.040795486 467:-0.03892358 468:-0.068543211 469:-0.044167563 470:0.033278413 471:0.037179813 472:0.030590538 473:0.0011123 474:0.022609336 475:-0.010823661 476:0.072164632 477:-0.015698129 478:-0.0094736777 479:-0.033752039 480:-0.065683551 481:0.035080563 482:-0.09081471 483:0.052363444 484:-0.0016719119 485:0.0067134588 486:0.055490211 487:-0.047935147 488:-0.049594328 489:0.00064382137 490:-0.03816554 491:-0.019170096 492:-0.043140985 493:0.041994561 494:0.021986147 495:0.039360262 496:0.076505043 497:-0.027773885 498:-0.032220509 499:-0.03409595 500:0.010130716 501:-0.040654566 502:-0.052914064 503:0.042290527 504:0.0097671477 505:0.13061526 506:0.0063566929 507:0.024181005 508:0.051541008 509:-0.05626585 510:0.032286599 511:-0.011262698 512:-0.092889346 
4 1:0.04676611 2:-0.026478058 3:-0.06004151 4:0.038210034 5:0.015223444 6:0.080380045 7:-0.066412464 8:0.092947073 9:-0.047372099 10:0.00792237 11:-0.061194692 12:0.06024164 13:-0.051795874 14:-0.016367637 15:0.0044514206 16:-0.061537288 17:0.015794324 18:0.030277502 19:0.021478934 20:-0.099127956 21:-0.023711182 22:0.036667909 23:0.047662683 24:-0.015031404 25:0.0042688902 26:0.013298902 27:0.020643553 28:0.021617059 29:0.041675173 30:0.012465852 31:-0.027212378 32:-0.022643223 33:0.020489775 34:-0.029561428 35:0.020531131 36:0.018024717 37:-0.021688757 38:0.0057755397 39:-0.060657412 40:0.023946008 41:-0.013316086 42:0.056734961 43:-0.0059141782 44:-0.049479984 45:0.0085280668 46:0.0096491985 47:-0.010622681 48:0.0054049431 49:-0.086676411 50:-0.026761645 51:0.019263586 52:0.015759163 53:0.065532759 54:-0.029182605 55:-0.079696968 56:0.079895869 57:0.0031289277 58:0.10336763 59:0.042337667 60:0.020373633 61:-0.051693205 62:0.015794216 63:-0.056742121 64:-0.038133103 65:-0.054300889 66:0.051446829 67:0.011707583 68:0.029911336 69:0.014493854 70:-0.039934035 71:-0.016103331 72:0.0083171492 73:-0.00057346292 74:0.00030867683 75:0.08446946 76:-0.053794432 77:-0.055138871 78:0.016195152 79:-0.013127666 80:0.032727808 81:0.018955395 82:-0.018162802 83:0.05944135 84:-0.0030619069 85:-0.020728575 86:0.0086206626 87:-0.023623783 88:0.049408566 89:-0.049470339 90:0.020033672 91:0.008524728 92:-0.017249005 93:0.074871458 94:-0.079510637 95:-0.00029500076 96:-0.0048586172 97:0.018219696 98:0.0040865736 99:-0.050521825 100:0.055810116 101:0.062574089 102:0.013938537 103:0.055106971 104:0.015718449 105:0.069587059 106:0.0047823396 107:-0.02419553 108:-0.07407856 109:0.013231638 110:-0.098547593 111:0.056124203 112:0.083847664 113:-0.070784308 114:-0.057246335 115:0.06410338 116:0.023153849 117:0.073714934 118:-0.02348512 119:0.005254447 120:0.025271596 121:-0.05376574 122:0.058616038 123:-0.036308099 124:-0.045792837 125:0.022817723 126:-0.048051618 127:0.021740636 128:0.010982391 129:0.022036694 130:-0.02893704 131:-0.053591471 132:0.019592328 133:0.085141249 134:-0.050798621 135:-0.052903701 136:0.02234081 137:0.0088646654 138:0.022801301 139:0.084598519 140:0.055236995 141:-0.0069980179 142:0.0071771424 143:0.0044221045 144:0.04187616 145:0.050499812 146:-0.033968784 147:-0.093187504 148:0.0067399745 149:0.053984024 150:0.021894217 151:0.038976677 152:-0.029016497 153:-0.044602763 154:0.0081666587 155:0.079569489 156:-0.012008653 157:0.024859998 158:0.052662376 159:-0.012804179 160:-0.053757865 161:0.049464393 162:0.0071275164 163:-0.046212338 164:0.014561 165:0.091521025 166:0.0948769 167:-0.016767822 168:-0.037891433 169:-0.087273702 170:0.12001865 171:-0.027022084 172:-0.015915181 173:-0.0077231051 174:-0.04154852 175:0.030830117 176:-0.030324958 177:0.060983103 178:-0.048490584 179:-0.09912961 180:-0.02338759 181:-0.014744521 182:-0.027763732 183:-0.017780056 184:0.0087877614 185:0.022442043 186:0.019782916 187:-0.011869648 188:-0.019911714 189:0.047161657 190:0.03530002 191:0.047823906 192:0.049818654 193:0.099304892 194:-0.069153614 195:0.059322711 196:0.022923971 197:0.032496903 198:0.056791637 199:-0.0078127626 200:-0.016861862 201:-0.029517017 202:0.012321956 203:0.037409361 204:-0.074710123 205:0.010920063 206:0.027279388 207:-0.026587283 208:-0.0010398525 209:0.034226216 210:0.052227907 211:-0.027374486 212:-0.017319893 213:-0.015738495 214:0.028865019 215:0.019032285 216:0.026755236 217:-0.047381476 218:0.0035951687 219:-0.063957773 220:-0.0012545795 221:-0.055506125 222:-0.0072580609 223:-0.019405697 224:-0.059754543 225:-0.018873116 226:-0.012760269 227:-0.052184395 228:-0.0095606064 229:0.019453842 230:0.061081115 231:0.036068965 232:0.073306315 233:-0.065435857 234:-0.085934699 235:0.03962006 236:-0.023215305 237:0.050789259 238:-0.058992483 239:-0.0026545299 240:-0.054799773 241:-0.043184567 242:-0.0024867628 243:0.0452541 244:0.01803723 245:0.042722546 246:0.054318655 247:0.0052607795 248:-0.0047542145 249:-0.03836539 250:0.011303987 251:0.054771457 252:0.060622863 253:0.035637259 254:0.0076131346 255:0.041576426 256:-0.049401052 257:0.0012615275 258:0.034447357 259:0.047587119 260:0.049438022 261:0.027343938 262:0.0062186467 263:0.02129297 264:0.0050587701 265:-0.055215508 266:-0.076614894 267:0.046898659 268:0.0059656538 269:-0.060350325 270:-0.0032628886 271:-0.077492103 272:0.060188793 273:-0.017835965 274:-0.028813843 275:-0.038169973 276:-0.10385084 277:-0.016430171 278:-0.01819576 279:-0.005103813 280:-0.022621069 281:0.020230543 282:0.07411094 283:-0.06662643 284:-0.085602231 285:-0.066431947 286:0.018764231 287:0.053037025 288:-0.018982537 289:-0.030161278 290:-0.095820732 291:-0.00248933 292:-0.02759972 293:0.029822819 294:0.021343965 295:-0.00030562544 296:-0.0061761998 297:0.045923382 298:0.052987251 299:0.010974822 300:0.054186244 301:0.098255523 302:-0.016238296 303:0.019590817 304:0.023749541 305:-0.018615369 306:-0.065728299 307:0.017686343 308:-0.045962505 309:0.011285153 310:9.1155103e-05 311:-0.057852514 312:-0.013535267 313:-0.042154465 314:0.017039806 315:0.080888532 316:0.0034093938 317:-0.0043401648 318:-0.03693651 319:0.022475649 320:-0.011281089 321:0.098671034 322:0.0012106851 323:-0.073289067 324:-0.0047539347 325:-0.03437271 326:0.0041406597 327:0.013252654 328:-0.038381599 329:0.0086419815 330:0.038545068 331:0.0016244012 332:0.019851232 333:-0.012598348 334:0.01951859 335:-0.019865053 336:0.0018850829 337:-0.036581382 338:0.042098388 339:-0.025971748 340:0.0050751893 341:0.037544433 342:-0.010252737 343:0.059597511 344:0.025535237 345:-0.025947727 346:-0.049756132 347:0.006611458 348:0.03759478 349:0.082713217 350:0.00015264947 351:-0.01341207 352:2.6257665e-05 353:-0.060592514 354:-0.013056979 355:-0.065720566 356:-0.013180577 357:0.07702937 358:0.028453093 359:-0.10732466 360:-0.0054169884 361:0.016470049 362:0.017977893 363:-0.095042422 364:0.014388786 365:-0.026554186 366:0.040425442 367:0.077979714 368:0.024150629 369:-0.012525834 370:0.0018658635 371:-0.035631742 372:0.0072887982 373:-0.0027278713 374:0.021209804 375:-0.0036886004 376:0.0034381272 377:-0.038789768 378:-0.043531954 379:0.0055781635 380:-0.033755999 381:-0.09562254 382:-0.027747616 383:-0.04972174 384:0.039600737 385:0.038652729 386:-0.040559635 387:0.019677928 388:-0.10461136 389:-0.02293493 390:-0.044052809 391:0.031972226 392:0.12284825 393:0.027786447 394:-0.045627434 395:0.0051170159 396:0.055796761 397:0.094686039 398:0.04807622 399:0.076027781 400:0.060913898 401:-0.049585216 402:0.062370248 403:-0.011892996 404:0.041602224 405:-0.022780869 406:-0.030712685 407:-0.020122968 408:-0.031777948 409:0.060993668 410:0.03982839 411:0.051878706 412:-0.022377735 413:-0.01800603 414:-0.00688195 415:-0.083933413 416:-0.019382332 417:0.012615582 418:-0.015172012 419:0.0034862338 420:-0.045403972 421:0.038301796 422:0.038716566 423:-0.001782036 424:-0.0094384998 425:-0.056061506 426:-0.035410527 427:0.032516483 428:-0.040638339 429:0.0036551952 430:-0.048843086 431:0.0030729636 432:0.062386978 433:0.0079830931 434:-0.025755817 435:-0.043934155 436:-0.04650756 437:0.038345035 438:0.024985436 439:0.01420636 440:-0.037998509 441:-0.018634424 442:0.014172197 443:0.018485239 444:-0.0062993937 445:0.025046308 446:0.036043778 447:-0.078102551 448:0.032836273 449:-0.032661185 450:-0.12949897 451:0.020143487 452:0.03427159 453:0.042759899 454:-0.029864265 455:0.027343398 456:0.014693719 457:0.033081722 458:0.068269372 459:0.090997979 460:0.023801534 461:0.014504644 462:0.067424856 463:0.027693732 464:-0.0608484 465:0.055999931 466:-0.042029247 467:-0.048184436 468:-0.0090645254 469:-0.028783066 470:-0.0039074817 471:-0.031227535 472:-0.044507455 473:0.049498238 474:-0.022115391 475:-0.02975978 476:0.016191421 477:0.096402332 478:-0.081883244 479:0.04130945 480:0.056379374 481:0.04424252 482:0.028323906 483:0.022663007 484:-0.026609853 485:0.095286205 486:0.010798234 487:-0.11826643 488:-0.036903955 489:0.03146201 490:-0.0050087846 491:-0.032699805 492:-0.035132796 493:0.001106066 494:-0.0033750637 495:0.096982308 496:0.0027911325 497:0.032404438 498:-0.020390147 499:-0.0093050133 500:0.019143164 501:-0.052622426 502:0.035378598 503:0.037304819 504:-0.016286749 505:0.0084137628 506:0.003080765 507:0.038389824 508:0.055093925 509:0.0075915018 510:-0.0075334348 511:-0.030692145 512:-0.053363316 
4 1:0.070562944 2:-0.006314043 3:-0.02632921 4:-0.0607614 5:0.014289608 6:-0.00089607399 7:-0.067135431 8:0.072741196 9:0.06487982 10:-0.02645787 11:-0.038307987 12:-0.055197861 13:-0.0017201146 14:-0.03892751 15:0.021760421 16:0.025398999 17:0.0014032765 18:-0.0050499048 19:-0.011899618 20:0.039470162 21:0.039313432 22:0.010939375 23:0.015127931 24:-0.055642866 25:-0.0027685259 26:0.015063218 27:0.025222585 28:-0.012859378 29:-0.016673479 30:0.0066635441 31:0.0064981892 32:0.015565587 33:-0.011500451 34:0.041580483 35:0.10539771 36:-0.0010060248 37:0.01862232 38:-0.013947972 39:-0.0084913028 40:-0.048256692 41:0.039972171 42:0.014475985 43:-0.0132659 44:-0.0211781 45:-0.079032689 46:-0.026422184 47:-0.046473686 48:-0.03647482 49:-0.09941005 50:0.0006048241 51:0.040439002 52:-0.013620791 53:-0.027736304 54:-0.010570535 55:-0.095508821 56:0.042141426 57:0.013771764 58:-0.053060919 59:0.0016588663 60:0.045714669 61:-0.0076826881 62:0.068580948 63:-0.081849404 64:0.050938163 65:-0.059897605 66:-0.023692578 67:0.045825623 68:-0.0102162 69:0.10059282 70:-0.058730308 71:-0.056994081 72:-0.054904018 73:-0.040833734 74:-0.053558204 75:0.034403682 76:-0.0039675524 77:-0.071518958 78:-0.016536694 79:-0.0090378132 80:-0.0045913747 81:0.03941071 82:-0.077215165 83:0.014314621 84:-0.02808773 85:0.016952453 86:-0.003542047 87:-0.01173936 88:0.045652863 89:-0.047293305 90:0.091184117 91:-0.032162573 92:-0.036027368 93:0.070723407 94:-0.0353867 95:-0.016675273 96:0.0088776629 97:-0.0047833147 98:-0.039444946 99:-0.066637591 100:-0.06594941 101:0.039998885 102:0.063239187 103:0.026117684 104:0.12508167 105:0.044898566 106:-0.0050004423 107:0.011780838 108:-0.058021169 109:0.018818086 110:0.010612228 111:-0.030697213 112:0.0055105654 113:-0.0025083758 114:-0.048865769 115:-0.028113643 116:-0.018637391 117:-0.013649402 118:0.030250773 119:0.056436319 120:0.062143527 121:0.016432226 122:-0.035986174 123:-0.065988176 124:-0.015428285 125:0.014172139 126:0.016655717 127:0.037230656 128:-0.04238902 129:-0.090495296 130:-0.016225111 131:-0.050016411 132:0.096966431 133:-0.038498219 134:-0.13615571 135:0.063367896 136:0.036256973 137:0.020524919 138:-0.070626803 139:-0.010843633 140:0.054962378 141:0.0034772875 142:-0.032152224 143:-0.061165608 144:0.016390797 145:0.017347325 146:-0.095184736 147:-0.016037112 148:0.027652234 149:-0.020653371 150:-0.014332433 151:0.011994055 152:-0.048598632 153:0.051432673 154:-0.015299107 155:0.022091722 156:0.013036933 157:0.016507875 158:0.089985415 159:0.022727625 160:-0.026257563 161:0.063436285 162:-0.01537715 163:-0.073539525 164:-0.041363187 165:0.084284186 166:0.021387553 167:-0.0040772613 168:-0.042390388 169:0.012879556 170:0.020777455 171:0.022192512 172:0.064300552 173:-0.024026085 174:-0.012497723 175:0.072529159 176:-0.050036378 177:-0.025301524 178:-0.048047192 179:-0.089685179 180:-0.023240693 181:-0.022284303 182:0.080715269 183:-0.070750013 184:-0.019763481 185:0.035138413 186:0.082092069 187:-0.0073244045 188:0.027983051 189:-0.0082025062 190:0.0032723318 191:0.037145089 192:0.012895683 193:0.048049048 194:-0.072429664 195:0.070658982 196:-0.028618641 197:0.0074348929 198:0.077136368 199:0.017963598 200:-0.0093831234 201:0.029450489 202:0.0097255735 203:0.036480609 204:-0.024946544 205:-0.027525006 206:0.083327122 207:-0.031925883 208:0.022636442 209:0.01574056 210:0.1081519 211:-0.013274944 212:-0.001541051 213:-0.014178324 214:-0.05195602 215:0.002617259 216:-0.039860364 217:-0.028247999 218:0.024953708 219:0.027341954 220:0.024422381 221:0.022599317 222:0.0046268939 223:-0.049906973 224:0.032933094 225:0.017743338 226:0.0036519698 227:-0.023652043 228:-0.086595207 229:-0.043811619 230:0.02257733 231:0.047072686 232:-0.029984906 233:-0.017290335 234:-0.051285446 235:0.078198649 236:0.008624916 237:0.011070525 238:-0.086619817 239:-0.035280947 240:0.022828097 241:0.039375197 242:0.0163179 243:0.014716247 244:-0.023394722 245:-0.039211843 246:0.10407413 247:0.016017264 248:0.074750006 249:-0.022860469 250:0.010724043 251:-0.034921892 252:-0.028927624 253:0.060448848 254:-0.047386959 255:0.015698126 256:-0.048332985 257:0.036409535 258:-0.0010738177 259:0.011084261 260:0.019371951 261:0.015308644 262:-0.045257162 263:0.044574801 264:-0.019175503 265:0.040567178 266:-0.0090447469 267:-0.012527808 268:0.04567384 269:-0.040940076 270:-0.019784316 271:-0.012064643 272:0.020039355 273:0.051447134 274:-0.053816985 275:0.030033495 276:0.051988292 277:-0.018010359 278:-0.065880418 279:-0.08538828 280:-0.056416683 281:-0.098259322 282:0.031864237 283:0.073480994 284:0.0057960143 285:-0.099611759 286:-0.061943907 287:0.034539465 288:-0.011284168 289:-0.0023874021 290:-0.0051339823 291:-0.019888714 292:-0.034352675 293:-0.051754937 294:-0.017260207 295:-0.021364111 296:-0.021966586 297:0.051089589 298:-0.016594725 299:-0.027345777 300:0.0059669218 301:-0.0080239866 302:-0.041400962 303:-0.035517335 304:-0.011035322 305:-0.033947859 306:-0.019533545 307:0.011411654 308:-0.02787005 309:0.027547583 310:-0.05573865 311:-0.048487507 312:-0.029185966 313:-0.080476798 314:-0.073077768 315:0.02317301 316:-0.066526912 317:-0.059527826 318:0.037021928 319:0.058715396 320:-0.069097124 321:-0.018284982 322:-0.065568782 323:-0.022461601 324:-0.015569541 325:-0.08716438 326:0.038183793 327:0.022961028 328:0.031372353 329:0.015413895 330:0.01189102 331:0.006599695 332:-0.042376861 333:-0.043555528 334:-0.0082731899 335:0.026948106 336:0.058184337 337:0.044969302 338:-0.048330918 339:-0.0051009264 340:-0.0043446515 341:0.012544514 342:-0.046585802 343:-0.0015719677 344:-0.0028886322 345:-0.031448968 346:-0.04124064 347:0.070137739 348:0.058216434 349:-0.081264555 350:0.033718351 351:-0.040112387 352:0.039570842 353:0.046492953 354:0.0074082427 355:-0.014775779 356:-0.065579295 357:0.03133323 358:-0.021887222 359:-0.10238332 360:-0.021985937 361:0.042755671 362:0.029874248 363:-0.061255325 364:-0.06429217 365:-0.028787633 366:0.041554 367:0.041138757 368:0.011285366 369:0.0270273 370:0.0069801998 371:-0.072247952 372:0.0032671555 373:-0.016121328 374:0.045613509 375:-0.03892152 376:-0.04832653 377:0.012166463 378:-0.025949379 379:-0.0080301501 380:0.086782359 381:-0.0077478751 382:-0.0085504334 383:0.023199746 384:0.0038085817 385:0.052735463 386:-0.049728736 387:0.047675364 388:0.053613633 389:0.0049953591 390:-0.027563184 391:-0.007902394 392:0.068633929 393:-0.10483105 394:0.020253051 395:0.0020761313 396:-0.0093035093 397:0.016948098 398:0.069289632 399:0.025697054 400:-0.065903284 401:-0.0087379068 402:-0.018725656 403:0.020029416 404:-0.0051241997 405:-0.025729835 406:-0.0029889662 407:-0.024884585 408:-0.020369316 409:0.032579284 410:-0.05487331 411:0.037368689 412:-0.0059374627 413:0.040029239 414:0.025429087 415:-0.1208679 416:-0.064081006 417:0.015856113 418:-0.050348699 419:0.029808307 420:-0.051530834 421:0.020956315 422:0.037389521 423:-0.035943996 424:0.020624036 425:0.04004902 426:0.0057285782 427:-0.05828876 428:-0.089790411 429:-0.022016032 430:-0.03821272 431:-0.016668594 432:-0.078412123 433:0.026499754 434:-0.0026198735 435:0.039020095 436:0.0021841868 437:0.10441076 438:0.043637224 439:-0.066377878 440:-0.050232831 441:-0.066741675 442:0.010063514 443:0.03672076 444:-0.00064667623 445:0.031135101 446:0.026663668 447:0.0067910082 448:-0.025816122 449:0.010793885 450:0.0034999077 451:-0.042159762 452:0.00071176596 453:0.091416053 454:-0.0044176788 455:-0.04483822 456:-0.033514578 457:0.013918979 458:0.082486071 459:-0.0035833679 460:0.063678533 461:0.060721606 462:0.052205652 463:0.038014021 464:-0.05730148 465:0.046162684 466:0.039164122 467:-0.043726087 468:-0.095167965 469:0.018147301 470:-0.021436587 471:0.040884614 472:-0.011769371 473:-0.038835566 474:0.020931758 475:-0.012988538 476:0.039304532 477:0.045278985 478:-0.027945451 479:-0.023301829 480:-0.040086232 481:0.053315427 482:-0.026157046 483:0.045679599 484:-0.009574349 485:0.033707045 486:0.063781343 487:-0.025759058 488:-0.044700205 489:-0.0009560766 490:-0.025943186 491:-0.012659035 492:-0.094181918 493:0.073991559 494:0.069390118 495:0.068908803 496:0.045419402 497:-0.0028236371 498:-0.12061108 499:-0.012383455 500:-0.041897159 501:-0.023812601 502:-0.064178005 503:-0.014673863 504:-0.019382149 505:0.054525416 506:-0.012517713 507:0.029087704 508:0.010091455 509:0.013233858 510:0.0038770654 511:-0.00049491972 512:-0.026396856 
4 1:0.05950439 2:-0.011702583 3:-0.052589986 4:-0.050171543 5:-0.024446661 6:-0.015285349 7:-0.039221495 8:0.082790084 9:0.036503714 10:-0.034236796 11:-0.057609789 12:-0.014413782 13:0.00041046354 14:-0.064325549 15:-0.013254746 16:-0.0033898882 17:0.034733444 18:0.025265666 19:0.027344558 20:0.0102019 21:0.0018075586 22:0.0027780656 23:-0.040957946 24:0.029640108 25:0.025148964 26:-0.02998212 27:0.0088396277 28:0.033724748 29:-0.025078835 30:0.090459667 31:0.066909395 32:-0.04331449 33:-0.0032253431 34:0.056753468 35:0.098341256 36:-0.019221641 37:-0.044955477 38:0.01685896 39:0.0064582597 40:0.046118312 41:0.03476575 42:-0.0016893654 43:0.037994981 44:0.0077606547 45:-0.063729361 46:0.016776484 47:-0.092194311 48:-0.058713187 49:-0.031439889 50:-0.0034790207 51:0.055347744 52:0.033747181 53:-0.0051863897 54:0.00021496772 55:-0.068346597 56:0.023603348 57:0.0027677454 58:-0.04591072 59:0.0011037444 60:0.053959351 61:-0.043435797 62:0.080433428 63:-0.0090980576 64:0.0052346135 65:-0.025542099 66:-0.0029448345 67:0.018285131 68:0.018899685 69:0.062492799 70:-0.040904678 71:0.0046412335 72:-0.05115309 73:-0.074253798 74:-0.060574915 75:0.034021355 76:0.0029325753 77:-0.047324833 78:-0.003470056 79:0.015233492 80:-0.016595533 81:-0.029243236 82:-0.052625097 83:0.027318727 84:-0.011535336 85:-0.007800498 86:-0.038803227 87:0.0043494832 88:0.0095243519 89:0.021686623 90:0.029099494 91:-0.013498018 92:-0.029258616 93:0.034793217 94:-0.039801266 95:0.00051992375 96:-0.058741566 97:-0.0092594149 98:-0.072208993 99:-0.060064416 100:0.020620389 101:0.025121132 102:0.079352379 103:0.04463036 104:0.075400136 105:0.039377216 106:0.044676606 107:-0.0065238867 108:0.019613024 109:0.080943607 110:0.040075783 111:-0.043023169 112:0.021843275 113:-0.032704096 114:-0.013453918 115:-0.0021187309 116:-0.0045337821 117:-0.024957662 118:0.056283291 119:-0.012522768 120:0.012102666 121:-0.01638628 122:0.042907275 123:-0.060333289 124:-0.036415886 125:0.0068720267 126:0.073726438 127:-0.058838412 128:0.014663379 129:-0.035741854 130:0.044749912 131:-0.090753317 132:0.031962 133:0.02006541 134:-0.082865201 135:0.077579021 136:0.019521059 137:-0.025716366 138:-0.05507201 139:0.024837444 140:0.031684551 141:0.026889006 142:-0.04148224 143:-0.0090529388 144:0.0057212315 145:-0.0020325182 146:-0.061771311 147:-0.038974807 148:0.036092509 149:0.035744786 150:-0.0054794396 151:0.026910862 152:-0.070334189 153:0.098247543 154:0.054126292 155:-0.0003628773 156:-0.028737158 157:0.057356775 158:0.034409169 159:0.024100224 160:-0.018151877 161:-0.0077659171 162:0.014907415 163:-0.10193653 164:0.024383269 165:0.12547021 166:0.061569959 167:0.015693946 168:-0.0063858479 169:-0.012456413 170:0.030742142 171:0.019287707 172:0.075984716 173:-0.048828594 174:0.056988362 175:0.036687754 176:-0.015593581 177:0.04258186 178:-0.031216716 179:-0.062683173 180:-0.078322329 181:-0.068105072 182:0.053442106 183:0.010686792 184:-0.010916166 185:0.0038328364 186:0.065871827 187:0.0058120075 188:-0.0095666768 189:-0.024451328 190:-0.031150658 191:0.088879704 192:-0.0082051754 193:0.048578061 194:-0.073707886 195:0.026030554 196:-0.057570376 197:0.041390996 198:0.078676313 199:0.047070973 200:-0.0016046031 201:-0.0026629271 202:0.040171478 203:0.064882994 204:-0.026166936 205:0.063022226 206:0.043136638 207:-0.033377402 208:0.019224584 209:-0.0069009662 210:0.060889971 211:-0.023880264 212:-0.0143938 213:-0.031134851 214:0.012827611 215:0.031254791 216:-0.054141827 217:-0.0089575807 218:0.0099687576 219:0.042387366 220:-0.0064897407 221:0.030631142 222:-0.024722908 223:-0.041834589 224:0.018953303 225:-0.0047612116 226:-0.052020479 227:0.029243616 228:-0.054750659 229:-0.044943929 230:0.033647239 231:0.053611077 232:0.0054125949 233:0.011041781 234:-0.050954081 235:0.10273686 236:0.004535147 237:-0.014284551 238:-0.01600432 239:-0.05660161 240:-0.033663634 241:0.017819613 242:0.00059849152 243:0.0706525 244:0.00070250226 245:0.018916277 246:0.077939339 247:0.069919683 248:0.10603058 249:-0.035614844 250:0.008199811 251:-0.020836817 252:0.009186374 253:0.065674365 254:0.0048325006 255:-0.011714008 256:-0.061136164 257:0.10172077 258:-0.046532184 259:-0.019538986 260:0.013611557 261:0.016364442 262:-0.047335897 263:0.011155631 264:-0.05552097 265:0.0024541034 266:-0.049385376 267:-0.042167004 268:0.053672515 269:-0.08496803 270:-0.001570165 271:-0.03894978 272:-0.018450705 273:0.014847653 274:-0.00049254182 275:-0.017493971 276:-0.0095823761 277:-0.020538365 278:-0.096858628 279:-0.089627542 280:-0.07564576 281:-0.06180533 282:-0.0060825739 283:0.0541142 284:0.0079332078 285:-0.08276318 286:-0.060692005 287:0.014304586 288:-0.038027816 289:-0.04622037 290:-0.00034332162 291:-0.050129686 292:0.0050642891 293:-0.032535437 294:-0.069304615 295:0.07579843 296:-0.034535982 297:0.064145938 298:-0.0053314129 299:0.011909682 300:0.045850597 301:0.057846908 302:-0.060543854 303:-0.031976018 304:-0.055853449 305:-0.040495209 306:0.011630795 307:0.016431255 308:-0.017107125 309:0.076738633 310:0.0013455704 311:-0.021116631 312:-0.040086739 313:-0.05094932 314:-0.042200059 315:0.03254332 316:-0.088142134 317:-0.010337995 318:-0.010392145 319:0.082338758 320:-0.11625462 321:0.0067880196 322:-0.065082751 323:-0.00047841339 324:-0.040736482 325:-0.09107966 326:0.078123152 327:0.012619627 328:-0.011273531 329:0.029073365 330:0.015826222 331:-0.0155431 332:-0.022541134 333:-0.044766698 334:0.022096409 335:0.075245805 336:0.054093674 337:-0.0152142 338:0.01959086 339:-0.037314534 340:0.051666349 341:-0.033765905 342:-0.043755606 343:0.027089123 344:-0.029476061 345:-0.034123089 346:-0.040985733 347:0.06732142 348:0.039841257 349:-0.018089391 350:0.024647709 351:-0.044015151 352:0.054084741 353:0.0051440625 354:0.016496373 355:-0.016907843 356:-0.069421016 357:0.057893787 358:-0.0029896444 359:-0.071809128 360:-0.056165706 361:0.015270147 362:0.066188663 363:-0.067402951 364:-0.034318671 365:-0.0067460304 366:0.04038547 367:0.025198825 368:0.068013445 369:0.004736613 370:0.022751385 371:-0.052455898 372:0.016036183 373:0.0066406387 374:0.026013624 375:-0.055461656 376:-0.068678111 377:0.015858997 378:-0.03861637 379:0.032303903 380:0.0061202459 381:0.023442797 382:0.022021186 383:-0.048516598 384:-0.01025753 385:-0.0030641188 386:0.01887664 387:0.04392514 388:-0.027399778 389:0.0066574616 390:-0.03997574 391:-0.0013112403 392:0.11324623 393:-0.077990681 394:0.0091227181 395:0.016795173 396:-0.014849976 397:-0.003324301 398:0.046143502 399:0.039531559 400:0.0027950283 401:0.099719599 402:0.00099649746 403:0.03855392 404:0.025458859 405:-0.02182376 406:-0.058709096 407:0.034212217 408:-0.0036036272 409:0.0017251578 410:-0.069645531 411:-0.0027119434 412:0.024651732 413:0.030321168 414:0.0063867671 415:-0.09767957 416:-0.088439174 417:-0.0069537289 418:-0.086120553 419:0.039418992 420:0.016871413 421:0.047707498 422:0.048665024 423:-0.076294057 424:0.044911537 425:0.04609222 426:-0.047914878 427:-0.0035146365 428:-0.031956464 429:-0.034620896 430:0.015013041 431:-0.0020488547 432:-0.05519912 433:-0.015885679 434:-0.0011032124 435:0.064165629 436:0.012485791 437:0.087140083 438:0.028655196 439:-0.024165118 440:-0.024569247 441:-0.07785733 442:-0.047456864 443:0.077892736 444:-0.00024666949 445:0.055969391 446:0.010004753 447:0.0070428415 448:-0.041565452 449:0.01359514 450:0.012619119 451:-0.061115216 452:0.015251464 453:0.042383783 454:0.016806487 455:-0.056604154 456:0.020572742 457:-0.06956476 458:0.042970095 459:-0.061384059 460:0.047090091 461:0.028474011 462:0.017831547 463:0.032049268 464:-0.057244394 465:0.0012853799 466:0.0091790948 467:-0.0051380298 468:-0.10039715 469:-0.042912535 470:-0.026662363 471:0.064902082 472:0.016621491 473:-0.021350294 474:0.013866938 475:-0.036010962 476:0.071698889 477:0.0021218543 478:-0.034238964 479:0.003250455 480:-0.058979969 481:0.020665446 482:-0.057936691 483:0.053656481 484:-0.0079704728 485:0.030949745 486:0.05782881 487:-0.10606209 488:-0.041742839 489:-0.048970636 490:-0.0036851517 491:-0.0042534694 492:-0.046765316 493:0.053762339 494:0.050748777 495:0.066437691 496:0.052572213 497:-0.0074268049 498:-0.061312694 499:-0.028429799 500:0.021482408 501:0.0066996086 502:-0.045091067 503:0.027764115 504:-0.0037302191 505:0.072600089 506:-0.0087776892 507:0.0069214017 508:0.070519313 509:0.0037616319 510:0.037244804 511:-0.015388526 512:-0.061631538 
4 1:0.020948919 2:-0.0060053882 3:-0.044510804 4:-0.063510418 5:0.0020592448 6:-0.066087522 7:-0.027595218 8:0.054644082 9:0.073536761 10:-0.045763247 11:-0.070061304 12:-0.01454998 13:0.0024425751 14:-0.055033244 15:-0.0093339467 16:0.01820532 17:0.0081046205 18:0.01212427 19:0.052910235 20:0.018203085 21:0.01852412 22:0.037209656 23:-0.048218086 24:0.03365279 25:0.043254171 26:-0.032621019 27:-0.019723179 28:-0.0013766314 29:-0.026284548 30:0.091946617 31:0.074293755 32:-0.011566233 33:0.035906162 34:0.022006648 35:0.10166249 36:0.00041810342 37:-0.038395658 38:0.010719774 39:0.017919287 40:0.040528819 41:-0.0087597007 42:-0.015173569 43:0.056459945 44:0.0029402964 45:-0.077308454 46:0.0032345967 47:-0.087473765 48:-0.025436416 49:-0.045021504 50:0.024753278 51:0.085186616 52:0.01759924 53:0.0063847108 54:0.0029098003 55:-0.042049397 56:0.0032820373 57:0.01482079 58:-0.0090451175 59:-0.02903307 60:0.033695567 61:-0.04219164 62:0.076697528 63:0.00011764651 64:0.0018175411 65:-0.060831826 66:-0.017658051 67:-0.035841104 68:0.050131455 69:0.045810621 70:-0.0260607 71:0.01314717 72:-0.061567996 73:-0.051613159 74:-0.069799341 75:0.022096625 76:-0.010955066 77:-0.02027718 78:0.018788829 79:0.0064393221 80:-0.00143668 81:-0.022345662 82:-0.056613881 83:0.0048105782 84:-0.041407928 85:-0.0040424606 86:-0.080336452 87:-0.016201369 88:0.013471065 89:0.01508389 90:0.047639575 91:0.021906206 92:0.0076334984 93:0.076986097 94:-0.031451069 95:0.014180702 96:-0.060845282 97:-0.004992913 98:-0.047775973 99:-0.06774734 100:0.018454019 101:0.026820784 102:0.092918858 103:0.052450296 104:0.052976668 105:0.065429062 106:0.021109264 107:0.0093026655 108:0.047571249 109:0.12278297 110:0.067057356 111:-0.021697022 112:0.016496887 113:0.0010553821 114:-0.026005736 115:-0.0073606838 116:-0.0073573268 117:-0.0090988465 118:0.057246674 119:-0.018119952 120:0.015053498 121:-0.022861224 122:0.0240584 123:-0.038605407 124:-0.015469154 125:0.001892549 126:0.10371026 127:-0.042021398 128:-0.015282754 129:-0.02475548 130:0.059317037 131:-0.048158921 132:0.055491615 133:0.025985314 134:-0.096288629 135:0.067810528 136:0.048936155 137:-0.0068684919 138:-0.016534759 139:0.02374121 140:-0.010430185 141:-0.00015835433 142:-0.070686504 143:-0.052035052 144:-0.01473656 145:0.015861215 146:-0.062935293 147:-0.013244811 148:0.009097429 149:0.039329786 150:-0.024746088 151:0.031445812 152:-0.064147495 153:0.093213566 154:0.033537436 155:-0.0045331693 156:-0.013682546 157:0.037604999 158:0.057164419 159:0.043452412 160:0.0033675879 161:-0.024145709 162:-0.027529929 163:-0.074471928 164:0.0036106987 165:0.11401482 166:0.00096949737 167:0.016306404 168:0.02452202 169:-0.020385411 170:-0.0051592658 171:0.017339567 172:0.01615203 173:-0.042901311 174:0.059940029 175:0.037205987 176:-0.033729937 177:0.016261294 178:-0.041839838 179:-0.04660894 180:-0.070823163 181:-0.094396435 182:0.064434431 183:-0.023744123 184:-0.03841133 185:-0.0074227527 186:0.075011462 187:0.030960135 188:0.0049262466 189:-0.059428241 190:0.020479005 191:0.085137643 192:-0.041783527 193:0.045620583 194:-0.034781594 195:0.028143074 196:-0.049532264 197:0.027775498 198:0.09491048 199:0.039909564 200:-0.013298512 201:0.014108706 202:0.023812426 203:0.055527743 204:-0.0096423356 205:0.058352709 206:0.022046052 207:0.024292821 208:0.0017459249 209:-0.022452481 210:0.047095969 211:-0.034820221 212:-0.012086608 213:-0.01473715 214:0.010165432 215:0.039404865 216:-0.046943467 217:0.024334287 218:-0.0014227532 219:0.085481279 220:-0.045411091 221:-0.0048280219 222:-0.020969983 223:-0.019988287 224:0.023385601 225:0.0095475642 226:-0.074221388 227:0.017960792 228:-0.040308099 229:-0.041510239 230:0.049870569 231:0.068035528 232:-0.026241738 233:0.014561802 234:0.016444137 235:0.098648421 236:-0.0095011676 237:-0.055735562 238:-0.018561633 239:-0.051514998 240:-0.052433271 241:-0.015513182 242:-0.032396611 243:0.085925698 244:-0.0059607942 245:0.040206783 246:0.085332736 247:0.059254229 248:0.097797588 249:-0.018908715 250:0.018928284 251:-0.022433905 252:-0.034912914 253:0.034198277 254:-0.015126848 255:-0.026185969 256:-0.067938499 257:0.088495642 258:-0.057225719 259:0.0094916699 260:-0.017820468 261:-0.03829366 262:-0.044934142 263:0.024228359 264:-0.02336603 265:0.052213922 266:-0.054026261 267:-0.067343816 268:0.07092768 269:-0.068457067 270:0.049237791 271:-0.042501807 272:-0.039497986 273:-0.0082578473 274:0.025154937 275:-0.029083744 276:-0.011004481 277:0.032094169 278:-0.03347937 279:-0.10595301 280:-0.075280011 281:-0.063779309 282:-0.0022675989 283:0.10129582 284:-0.0055175219 285:-0.060743935 286:-0.085414775 287:-0.0091703571 288:-0.076472834 289:-0.045430072 290:-0.00076978066 291:-0.047150627 292:0.018043565 293:-0.050993875 294:-0.093417965 295:0.037016328 296:-0.029225131 297:0.087285258 298:-0.050566062 299:-0.0063226358 300:0.075850837 301:0.018367637 302:-0.012281796 303:-0.045661569 304:-0.027629945 305:-0.026455572 306:0.038138915 307:-0.02143582 308:-0.011164664 309:0.0807864 310:-0.022377927 311:-0.026252996 312:0.010817341 313:-0.043418854 314:-0.020951828 315:0.018627331 316:-0.07646884 317:-0.0097938636 318:-0.026641956 319:0.065901436 320:-0.12713321 321:-0.0091089131 322:-0.054083247 323:-0.02123774 324:-0.012428928 325:-0.090408616 326:0.12460173 327:0.0044401982 328:0.0076283501 329:0.0043414794 330:-0.0017063218 331:-0.024332408 332:0.0057471138 333:-0.028221071 334:0.011658992 335:0.021927861 336:0.012156782 337:-0.013019501 338:0.011806818 339:-0.024022151 340:0.014329918 341:-0.02753442 342:-0.020523619 343:-0.0047799964 344:-0.032426152 345:0.011956371 346:-0.031202409 347:0.078224577 348:0.024680223 349:-0.014224519 350:-0.018016791 351:-0.0379752 352:0.061836015 353:-0.0106325 354:-0.00063002674 355:-0.002874817 356:-0.066708699 357:0.040771313 358:-0.0078816619 359:-0.020495195 360:-0.071567066 361:0.031212024 362:0.050226856 363:-0.05061334 364:-0.032874424 365:0.01959447 366:0.023450088 367:-0.014895094 368:0.016754152 369:-0.001947848 370:0.00018248959 371:-0.089765407 372:0.0016646824 373:-0.036030181 374:0.022406889 375:-0.020505333 376:-0.042626709 377:-0.0087758843 378:-0.023906915 379:0.03748193 380:0.05648141 381:0.031836923 382:0.019532414 383:-0.0161661 384:0.012115426 385:-0.012986634 386:0.014232753 387:0.0090519078 388:0.0011812386 389:-0.020410595 390:-0.026445786 391:0.0095223803 392:0.054498203 393:-0.026841555 394:0.0064558485 395:0.058146406 396:-0.045250949 397:-0.0019547113 398:0.056134902 399:0.03861599 400:0.00068766397 401:0.10289402 402:-0.055173412 403:0.032272737 404:-0.018139198 405:-0.022259414 406:-0.058568016 407:0.018550571 408:0.010490913 409:-0.00041985145 410:-0.078691266 411:0.014832467 412:0.042134043 413:0.0037598491 414:-0.0297988 415:-0.099495485 416:-0.065766931 417:-0.0070842328 418:-0.06136924 419:0.035324179 420:0.01102001 421:0.021755932 422:0.0077315881 423:-0.071900137 424:0.035408456 425:0.045120269 426:-0.034788854 427:-0.0089693815 428:0.011029745 429:-0.042337459 430:0.039820626 431:-0.014745536 432:-0.061963834 433:-0.03137175 434:0.0081786318 435:0.077340052 436:0.011161651 437:0.091850318 438:0.0045225713 439:-0.062098134 440:-0.042294566 441:-0.018452659 442:-0.082538329 443:0.096264094 444:-0.020796988 445:0.042509373 446:-0.002369704 447:-0.022411602 448:-0.019627405 449:0.046463113 450:0.03850922 451:-0.046701659 452:0.021365119 453:-0.020826444 454:0.023164591 455:-0.050718471 456:0.004423419 457:-0.097269952 458:0.0032173088 459:-0.042072996 460:0.072189309 461:0.0037188984 462:-0.033322897 463:-0.022430999 464:-0.050912693 465:0.012265323 466:0.025868015 467:-0.01276695 468:-0.088637315 469:-0.046082422 470:0.012348787 471:0.032614559 472:0.032119785 473:-0.049764723 474:-0.012807793 475:-0.062777311 476:0.050672509 477:-0.047942158 478:-0.027082356 479:0.009670605 480:-0.051004417 481:-0.023956101 482:-0.080953583 483:0.067493871 484:0.010805548 485:0.01691854 486:0.033719212 487:-0.069120191 488:-0.0083114263 489:-0.047926452 490:-0.036408566 491:0.026403043 492:-0.028104663 493:0.048625913 494:0.042571422 495:0.071835488 496:0.09758912 497:-0.027936753 498:-0.024144387 499:-0.018090323 500:-0.0086282026 501:-0.0075339661 502:-0.045984928 503:0.029049572 504:0.014229065 505:0.10960611 506:0.0031398619 507:0.010773615 508:0.013359576 509:-0.0081162089 510:0.037551057 511:0.011540366 512:-0.094048113 
-4 1:0.1016966 2:-0.018811887 3:0.058068745 4:-0.017090214 5:-0.020926621 6:0.047145333 7:-0.013439618 8:-0.023925826 9:-0.07321573 10:-0.025333807 11:0.043902274 12:-0.015479323 13:-0.070129469 14:0.0066019176 15:-0.037222221 16:-0.015632028 17:-0.011258588 18:0.086261332 19:-0.068408698 20:-0.03191163 21:-0.0016563201 22:-0.025386093 23:-0.0090277316 24:-0.029271165 25:-0.073013417 26:-0.01626005 27:-0.040034045 28:-0.025507759 29:-0.03791682 30:-0.0068473439 31:0.027937321 32:-0.035200711 33:0.035621151 34:0.040942479 35:0.0066039362 36:0.022916188 37:0.0040202644 38:-0.013315848 39:0.0061183502 40:0.040718835 41:-0.030448604 42:0.03370817 43:-0.057085674 44:-0.0089051053 45:0.044764847 46:0.035177361 47:-0.071895137 48:-0.023876633 49:0.045033995 50:0.0026767226 51:-0.010763916 52:-0.010877353 53:-0.062839448 54:0.035022583 55:0.015774162 56:-0.0054630549 57:0.042963907 58:-0.082812756 59:0.014476473 60:0.041921195 61:-0.015504502 62:0.004663209 63:0.046955172 64:0.014971849 65:0.048495069 66:-0.026567429 67:0.024081215 68:0.0062811216 69:0.039084241 70:-0.021780049 71:-0.029763008 72:0.034120444 73:0.0045928233 74:-0.018682055 75:0.074049667 76:-0.031825118 77:-0.004374248 78:0.0546664 79:0.03086693 80:0.0024401105 81:-0.049500473 82:-0.037298176 83:0.037867974 84:0.026025591 85:0.029415397 86:0.021198303 87:0.059345912 88:0.013968933 89:0.032551028 90:-0.014719368 91:-0.043530535 92:-0.07707987 93:-0.053940237 94:0.0053207502 95:-0.057175066 96:-0.042289738 97:-0.011569688 98:0.0066405255 99:0.007817788 100:0.053406373 101:0.0824764 102:0.019803036 103:-0.019661972 104:0.026467638 105:0.05324316 106:-0.023577727 107:0.004620465 108:-0.04893915 109:-0.0063253581 110:-0.093758911 111:0.015099664 112:0.057774194 113:0.015573073 114:0.00047923467 115:0.027699713 116:0.021776669 117:-0.0013637461 118:-0.099408999 119:0.040381636 120:-0.002040406 121:-0.011711159 122:0.0060470081 123:-0.091268986 124:0.030977199 125:-0.0063846498 126:-0.032749839 127:-0.067900375 128:-0.018572267 129:0.077265792 130:0.050109606 131:-0.0079627391 132:-0.050817851 133:-0.052537858 134:0.03181085 135:0.043511096 136:-0.015093501 137:-0.0041069286 138:-0.027442662 139:-0.0065617859 140:0.010159671 141:0.10792615 142:0.088222995 143:-0.019498317 144:0.00015448639 145:-0.00064734806 146:-0.041785937 147:-0.015065915 148:0.017684471 149:-0.046382364 150:0.081247002 151:-0.026747026 152:-0.068019532 153:-0.036762703 154:-0.02632302 155:0.032051396 156:0.0078944983 157:-0.0094057443 158:0.0074066445 159:-0.072629906 160:-0.090720773 161:-0.080090284 162:0.014234787 163:-0.11595838 164:0.008256291 165:0.0060958373 166:0.061390415 167:0.01901051 168:0.097108811 169:-0.055471834 170:0.0074150348 171:0.0048119249 172:-0.02198654 173:-0.03709738 174:0.035299998 175:0.04819743 176:0.024639737 177:-0.018178521 178:-0.0013540502 179:-0.040071018 180:0.022193963 181:0.063029781 182:-0.041796252 183:0.098968707 184:-0.010419495 185:0.067703642 186:-0.039299544 187:-0.0063292389 188:-0.076235227 189:0.020352881 190:-0.029407645 191:-0.046209313 192:0.044998601 193:0.035040524 194:-0.014909536 195:0.0074090934 196:-0.044953033 197:-0.062480837 198:0.041227214 199:0.080306932 200:-0.014685672 201:-0.04008447 202:0.047730524 203:0.010566644 204:0.011636964 205:0.029618172 206:-0.058061335 207:-0.059347823 208:0.044826623 209:0.047317848 210:0.029636234 211:-0.010458783 212:-0.077624261 213:0.038391009 214:-0.00063187198 215:-0.035772007 216:-0.0042793253 217:-0.00011464804 218:0.014590997 219:0.036759239 220:0.053170342 221:0.030735493 222:0.023477564 223:0.037921119 224:0.031441998 225:0.00783577 226:-0.042092003 227:-0.042080849 228:-0.015124976 229:-0.02020867 230:-0.0076012118 231:0.026461991 232:0.086446889 233:-0.088420212 234:-0.052918863 235:0.10805792 236:-0.095086001 237:-0.0122431 238:0.034255091 239:0.060998537 240:0.01019102 241:0.034609474 242:-0.014971713 243:0.075947657 244:0.056518584 245:0.0038144763 246:-0.020826383 247:0.032982402 248:-0.027251069 249:0.0095469411 250:-0.044325218 251:0.060518157 252:0.012077519 253:0.041925885 254:-0.0025125174 255:-0.018958513 256:-0.06901522 257:-0.050772127 258:0.069369465 259:-0.0086709298 260:0.059310209 261:0.013720942 262:0.029632786 263:-0.002181713 264:0.00030969907 265:-0.051508266 266:-0.025771784 267:0.078630783 268:-0.028916581 269:-0.043059409 270:-0.071106121 271:0.02648076 272:-0.0077852746 273:0.016272634 274:-0.080731124 275:0.024192551 276:-0.016164318 277:0.0028131458 278:-0.062759608 279:-0.043633118 280:-0.022103354 281:0.0020918599 282:0.02277324 283:-0.076013707 284:0.023264285 285:-0.030893089 286:0.028074808 287:0.017739762 288:-0.037496291 289:0.025563655 290:0.030239968 291:-0.071977608 292:-0.046293303 293:-0.0077455183 294:-0.0066493033 295:0.10609844 296:0.036385175 297:-0.052778088 298:0.019351589 299:-0.024088617 300:-0.056969877 301:0.049483232 302:-0.021296322 303:0.0039414512 304:0.044398557 305:-0.078566119 306:-0.012005058 307:0.02686844 308:-0.0018850227 309:0.025620539 310:0.040937498 311:-0.032617293 312:-0.076773189 313:0.040898062 314:0.020388154 315:0.073788397 316:-0.044794649 317:-0.013943972 318:-0.059373673 319:-0.0013482898 320:0.026629144 321:-0.015000714 322:0.022672789 323:0.011518396 324:-0.050208494 325:-0.0058511212 326:-0.029418036 327:-0.015418299 328:0.0017092952 329:0.0080597606 330:0.0053361226 331:-0.012040225 332:-0.03084543 333:-0.037806489 334:0.021738194 335:0.054951631 336:0.046898484 337:0.016763147 338:0.027581729 339:-0.085785493 340:0.025555987 341:-0.060577046 342:-0.025126321 343:0.05807583 344:-0.0030844295 345:-0.036219012 346:0.065964013 347:-0.023986101 348:-0.018755533 349:0.034013089 350:-0.032873765 351:-0.0020445976 352:-0.013572659 353:0.043635454 354:0.040199324 355:-0.013962754 356:-0.010084241 357:-0.027300054 358:0.00064293743 359:-0.086363591 360:-0.003897523 361:-0.080100387 362:0.00033243731 363:0.011126247 364:0.026738111 365:-0.034471139 366:0.025366876 367:0.055532057 368:0.090043001 369:-0.04928771 370:0.043585751 371:0.0035632574 372:-0.0033909455 373:0.014887953 374:0.0037702892 375:-0.10192376 376:-0.02973181 377:0.048435498 378:-0.007920092 379:0.0034131852 380:0.015022889 381:-0.0082066497 382:-0.026296824 383:-0.12040383 384:0.026603039 385:0.022249119 386:0.036219925 387:0.0042742235 388:-0.068567805 389:-0.044844959 390:0.078408718 391:-0.024066888 392:0.072047606 393:-0.044750068 394:0.028888592 395:-0.067833163 396:0.086920686 397:-0.0044273837 398:-0.041794054 399:0.01032229 400:-0.028605534 401:0.019591417 402:0.0026842174 403:-0.0080699436 404:0.043394264 405:0.089749128 406:-0.019016501 407:-0.067481451 408:-0.066339202 409:-0.0043284297 410:0.062149998 411:0.011471768 412:-0.005548839 413:0.019676769 414:0.033277266 415:-0.034741718 416:-0.084160931 417:0.009365676 418:-0.047022153 419:0.050414782 420:0.026790749 421:-0.03416774 422:0.019297116 423:-0.058400199 424:-0.12474861 425:0.026187034 426:0.063703701 427:0.030938849 428:-0.047322083 429:-0.017302901 430:0.032060258 431:0.046642415 432:0.033696093 433:-0.069837943 434:-0.063462079 435:-0.032680839 436:0.029194359 437:-0.0090730879 438:0.062674813 439:0.021807779 440:0.064198092 441:-0.040853105 442:0.052809585 443:-0.059267256 444:-0.044958573 445:0.027342131 446:-0.063390985 447:-0.033387851 448:0.0028930819 449:-0.05849541 450:-0.111784 451:0.035870064 452:-0.026756728 453:0.048167579 454:0.076582097 455:-0.037131958 456:-0.033412203 457:-0.019780077 458:0.040841356 459:0.01438689 460:0.064887002 461:-0.011784768 462:0.058091421 463:0.1191678 464:-0.017754609 465:-0.033577282 466:0.011350549 467:0.077558212 468:-0.028169462 469:-0.026462909 470:-0.039454453 471:-0.0060469671 472:-0.055532806 473:0.027210338 474:-0.024605595 475:-0.054855958 476:-0.070975311 477:0.032107349 478:-0.10317343 479:0.0019948159 480:-0.020685175 481:0.068995595 482:0.068137996 483:0.021216821 484:0.0012664555 485:0.017914338 486:0.047007672 487:-0.0036471053 488:-0.053634085 489:0.012879771 490:0.018414535 491:-0.071475886 492:-0.020532433 493:0.041984111 494:0.027547464 495:0.0041544884 496:-0.0058440506 497:-0.044064786 498:0.074690573 499:0.021795662 500:0.0090546878 501:0.0068674921 502:0.027072733 503:0.046058461 504:-0.05337622 505:0.015993068 506:-0.016766058 507:0.029262042 508:0.10399624 509:-0.01643483 510:-0.11540419 511:-0.030935844 512:0.016644057 
-4 1:0.069333881 2:-0.073138721 3:0.031068699 4:0.059653979 5:0.032550227 6:0.075625055 7:-0.03714145 8:0.022351323 9:-0.059092477 10:-0.022497101 11:-0.054322448 12:0.020893062 13:-0.059798397 14:0.0297228 15:-0.0098233195 16:-0.018158678 17:-0.012654147 18:0.081238493 19:-0.023835631 20:-0.060093537 21:-0.041065451 22:0.011043578 23:0.077129714 24:0.019359386 25:-0.03185574 26:0.0014029484 27:0.03791235 28:0.0082658557 29:0.01771478 30:0.0055827899 31:0.030692685 32:-0.080574356 33:0.0038696893 34:0.00027300039 35:0.027609166 36:0.045680802 37:0.019279212 38:0.025629694 39:-0.059340619 40:0.019760277 41:0.008009701 42:0.054412976 43:0.033703629 44:-0.071890637 45:0.054759722 46:0.037925731 47:-0.019250643 48:-0.015421863 49:-0.043892436 50:0.0094443727 51:0.031392455 52:0.052655306 53:0.0098260008 54:0.031758517 55:-0.052929964 56:-0.014464864 57:0.066839874 58:-0.028336164 59:0.064127326 60:0.03547363 61:-0.046317004 62:-0.077400766 63:0.063825138 64:0.023186242 65:-0.0027093522 66:0.0037295516 67:0.028942136 68:0.0023520943 69:0.057917733 70:-0.014328878 71:-0.04074958 72:0.012897994 73:0.051642947 74:-0.017156271 75:0.03389547 76:-0.030707821 77:-0.010968729 78:-0.019816151 79:-0.0037004827 80:0.025106994 81:0.047484066 82:-0.020102644 83:0.080177866 84:0.029650377 85:-0.014956385 86:0.11530927 87:0.0032742135 88:-0.0088675022 89:-0.010030085 90:-0.011049457 91:-0.010835811 92:-0.021286309 93:0.0089854607 94:-0.049528074 95:-0.045583706 96:-0.018854367 97:-0.012911674 98:0.014434936 99:0.032458801 100:-0.008184487 101:0.06590341 102:0.0048685935 103:-0.007469614 104:0.0592665 105:0.035092365 106:-0.020075401 107:-0.02810909 108:-0.09565419 109:0.021049045 110:-0.09205687 111:-0.012301294 112:0.10251658 113:-0.026084017 114:-0.045713104 115:0.087013319 116:-0.0081461221 117:-0.016254557 118:-0.10799306 119:0.020411678 120:-0.011597545 121:-0.0015277346 122:0.035333633 123:-0.053549141 124:-0.087004304 125:0.024244081 126:-0.066598617 127:-0.057038415 128:0.024136601 129:0.037869021 130:0.022274582 131:0.030554999 132:-0.0031474878 133:-0.024703568 134:0.052325122 135:-0.026824921 136:0.0015739296 137:-0.070337333 138:-0.029975219 139:0.041637689 140:0.036488473 141:0.048915692 142:0.098061509 143:0.059370782 144:0.061722625 145:0.032945212 146:-0.042461414 147:0.0017981342 148:0.031171329 149:-0.014088547 150:0.04290675 151:-0.0020964982 152:-0.019242993 153:-0.0029201212 154:0.035001036 155:-0.045035653 156:-0.02084624 157:-0.042466577 158:-0.0041955491 159:-0.055626202 160:-0.11954487 161:-0.026905708 162:0.051513638 163:-0.051771615 164:-0.0034166405 165:0.026304187 166:0.11521249 167:-0.10167519 168:-0.031457242 169:-0.065397128 170:0.0028997904 171:-0.015114506 172:-0.065463297 173:0.012927525 174:0.049252491 175:0.095826983 176:0.0023782121 177:0.0065684821 178:-0.042943936 179:-0.051293161 180:0.0027266841 181:-0.040095389 182:-0.0051139933 183:0.041607063 184:-0.049683783 185:0.027262259 186:-0.055835072 187:0.015794002 188:-0.055354003 189:0.084834307 190:-0.035755999 191:0.0071806968 192:0.10156 193:0.034435008 194:-0.031864252 195:0.0039469395 196:-0.018719647 197:-0.017044164 198:0.029400161 199:0.033454895 200:0.0020530713 201:-0.062043834 202:0.049971405 203:0.0058450494 204:-0.021215538 205:0.025746344 206:0.016884813 207:0.010524137 208:0.070022322 209:0.042253513 210:0.004264066 211:-0.041354716 212:0.0094163697 213:0.0083031943 214:0.027014259 215:0.010732205 216:0.014189121 217:-0.023842605 218:0.011801205 219:-0.03188841 220:0.070015155 221:-0.055059377 222:-0.049938966 223:-0.013220929 224:-0.022035601 225:-0.02995719 226:-0.0051949406 227:-0.048361663 228:-0.031884685 229:0.025398619 230:-0.036043376 231:0.090772994 232:0.091085091 233:-0.0026177077 234:-0.0015234855 235:0.044051513 236:-0.13825956 237:0.04940844 238:0.017775619 239:0.0082515897 240:-0.020818261 241:0.0069649583 242:-0.035767734 243:0.049872145 244:0.042214517 245:-0.039736286 246:0.011780083 247:0.013964806 248:0.015196349 249:-0.089364439 250:0.027113125 251:0.081727028 252:-0.021048943 253:0.051587969 254:0.033980589 255:0.0097177178 256:-0.051283035 257:-0.072258934 258:0.018546741 259:0.012705911 260:0.048144057 261:0.043471515 262:-0.017106926 263:0.02160823 264:-0.024409994 265:-0.065692 266:-0.025882367 267:0.062107969 268:0.014081701 269:-0.018901329 270:-0.027212385 271:0.02598384 272:0.04754971 273:0.041227866 274:-0.075958982 275:-1.7066504e-05 276:-0.074868143 277:0.013427727 278:0.036250595 279:0.0401676 280:0.043507829 281:-0.021397756 282:-0.028863719 283:-0.050174352 284:-0.024512365 285:-0.064254887 286:-0.017191658 287:0.045258529 288:0.010426459 289:0.044155616 290:-0.02089474 291:-0.00044717436 292:-0.039034113 293:-0.012919398 294:0.020771377 295:0.0669121 296:0.031492516 297:-0.081097104 298:0.059459105 299:-0.013078484 300:-0.048870254 301:0.091408655 302:-0.026039373 303:0.037136707 304:0.038882393 305:0.011883351 306:-0.057236906 307:0.013066209 308:0.016207784 309:0.0211353 310:0.048171755 311:-0.014409485 312:-0.020475499 313:-0.047716063 314:0.064531267 315:0.050157692 316:0.045776214 317:-0.019974966 318:-0.0098348595 319:0.017657539 320:0.057674926 321:0.061977006 322:-0.028443106 323:0.080866352 324:-0.0019771976 325:-0.057633206 326:0.016284415 327:-0.037115227 328:-0.066307425 329:0.025282495 330:-0.01272083 331:0.013399814 332:-0.087539859 333:0.017192444 334:-0.058500346 335:0.0085578086 336:0.036197845 337:0.050396629 338:0.10814516 339:-0.05407133 340:0.0060049701 341:-0.049263313 342:-0.04833601 343:0.007589058 344:0.016013721 345:-0.017344614 346:-0.0096877329 347:-0.051533137 348:0.046044871 349:0.098306946 350:-0.0095716091 351:0.021832392 352:-0.051656008 353:0.021709558 354:-0.0068350188 355:-0.042023931 356:-0.020992219 357:-0.056113727 358:0.032467213 359:-0.13398015 360:0.02884233 361:0.0053350646 362:-0.0036006507 363:0.017800108 364:0.042323202 365:0.014132431 366:-0.010540379 367:0.034212101 368:0.064465635 369:0.026134845 370:0.033027258 371:0.0033125419 372:0.025579179 373:-0.027380489 374:0.00903117 375:-0.049411908 376:0.031573296 377:0.016967835 378:-0.051251628 379:0.06218804 380:0.063235477 381:-0.061301116 382:0.019813806 383:-0.073600069 384:0.0043166168 385:0.016066654 386:0.011838849 387:0.017819801 388:-0.074450128 389:-0.027852226 390:-0.0157736 391:-0.0075321845 392:0.099484861 393:0.008701277 394:0.041186873 395:-0.015665857 396:0.049374562 397:0.049317356 398:0.063613996 399:0.04542334 400:-0.029477121 401:-0.011000549 402:-0.022230383 403:-0.024560431 404:0.058127817 405:0.073261611 406:-0.037556585 407:-0.066945061 408:-0.044540282 409:-0.031140741 410:0.0717742 411:0.0074557485 412:-0.034288336 413:0.013185769 414:0.058349535 415:-0.0071828621 416:-0.083929986 417:-0.0050166962 418:-0.067492977 419:0.011096396 420:-0.0024504396 421:-0.01226447 422:0.02793644 423:0.0086921398 424:-0.076486312 425:-0.074623831 426:0.059324037 427:0.024347711 428:0.0043133306 429:-0.0097146267 430:-0.037330095 431:0.015305726 432:0.089155115 433:-0.012031608 434:0.00092650857 435:-0.035966199 436:0.016401498 437:-0.0051386012 438:0.049195435 439:0.0056395284 440:0.028295591 441:-0.089192525 442:-0.010563254 443:-0.035049949 444:-0.024081847 445:0.013976536 446:0.014333337 447:-0.065492593 448:-0.0090665789 449:-0.0017211104 450:-0.1029673 451:-0.0073454161 452:0.015546229 453:0.045583073 454:0.033390291 455:0.027747747 456:0.062228687 457:-0.00043209139 458:0.0099936919 459:0.020469813 460:0.033693694 461:-0.031540826 462:0.034618415 463:0.056700177 464:0.04182899 465:-0.026843581 466:-0.078144915 467:0.034981944 468:-0.043550968 469:-0.032827929 470:0.055276666 471:0.0032544986 472:-0.033888947 473:-0.0029653576 474:0.022640651 475:-0.026033133 476:0.04001287 477:0.11645575 478:-0.094257332 479:0.0095170541 480:0.050932102 481:0.056894924 482:0.028117759 483:0.0081858048 484:-0.045064244 485:0.029361751 486:0.070495635 487:-0.058500908 488:0.014362724 489:0.024133554 490:0.020668054 491:-0.074898317 492:-0.055362649 493:0.037158299 494:0.010517804 495:0.073264152 496:0.015331576 497:-0.010110046 498:0.054993972 499:0.024643652 500:0.057348486 501:0.044150937 502:-0.027419958 503:0.012917847 504:-0.020292796 505:-0.011906507 506:0.023833588 507:0.048250996 508:0.069274701 509:0.022086535 510:-0.03505943 511:0.0071652024 512:-0.04988255 
-4 1:0.11417462 2:-0.021875111 3:0.04629584 4:0.010117492 5:-0.03758106 6:0.050020184 7:-0.034355182 8:0.090624914 9:-0.085885428 10:-0.064187527 11:-0.004735488 12:-0.027454916 13:0.0008770178 14:0.007963784 15:0.0050331652 16:-0.080118991 17:-0.0033100289 18:0.060000956 19:-0.042254545 20:-0.0078629674 21:0.00087127008 22:-0.051067814 23:0.054904599 24:-0.011970286 25:0.0029588181 26:0.025481718 27:0.046007495 28:0.023610413 29:0.010019144 30:0.060863651 31:0.039830815 32:-0.051719144 33:-0.087291583 34:-0.019844027 35:0.013137683 36:-0.0074795657 37:-0.066686288 38:0.012015907 39:-0.023451168 40:-0.0022863527 41:-0.045189656 42:0.10817036 43:-0.027666416 44:0.010431654 45:0.1183791 46:0.029536951 47:-0.013550594 48:-0.026229803 49:0.011761696 50:-0.049034636 51:-0.0071384315 52:0.0034049903 53:0.0059717768 54:0.055487961 55:-0.077186011 56:0.065100178 57:0.00041502522 58:-0.0021981362 59:-0.028077107 60:0.066052973 61:-0.022685219 62:-0.053103302 63:0.017217355 64:0.014907123 65:0.04087045 66:0.012726678 67:-0.029292909 68:0.0085979942 69:0.051030237 70:-0.037815932 71:-0.028989749 72:0.10212874 73:-0.025348563 74:-0.081544392 75:0.043317482 76:-0.036211383 77:-0.0082476456 78:-0.041401628 79:0.01362666 80:-0.0067985249 81:-0.011660645 82:-0.016525187 83:0.10238524 84:-0.010205881 85:-0.024297947 86:0.053355899 87:-0.016151592 88:0.0052577746 89:0.11265036 90:0.090814531 91:-0.0022279678 92:-0.040975757 93:-0.0068375906 94:-0.066293001 95:-0.025441315 96:-0.061282333 97:-0.027835447 98:-0.0081263175 99:-0.010026948 100:-0.040073119 101:0.05391635 102:-0.015203943 103:0.02364268 104:0.09539967 105:0.07515876 106:0.064321049 107:-0.02467002 108:-0.0096149901 109:-0.021906029 110:-0.059101876 111:-0.023628255 112:0.11739697 113:0.02332674 114:0.0069194338 115:0.042501468 116:-0.01713193 117:-0.083764061 118:-0.034375545 119:-0.0039345976 120:-0.030165104 121:0.0078535201 122:0.03346711 123:-0.0015370799 124:-0.068369113 125:0.043918233 126:-0.022613009 127:-0.09589041 128:0.031300075 129:0.048048723 130:-0.029440682 131:-0.00073871535 132:0.012015027 133:-0.027096009 134:0.047454674 135:0.081567518 136:0.0032657066 137:-0.017512305 138:-0.017380029 139:-0.033360314 140:0.043243393 141:0.024363995 142:0.06912756 143:-0.049492083 144:0.0043783397 145:-0.022567827 146:-0.0027739126 147:0.052014094 148:0.023382563 149:-0.010352219 150:0.094301328 151:-0.01911917 152:-0.065918341 153:-0.011866671 154:0.052668605 155:-0.025636215 156:0.027955677 157:0.014758067 158:-0.034806654 159:-0.012035772 160:-0.075572677 161:0.0068447096 162:-0.0032668386 163:-0.13670829 164:-0.036051556 165:0.064497396 166:0.05638025 167:0.005239374 168:-0.020364761 169:-0.040324122 170:0.00031688449 171:-0.0015838612 172:-0.0020316113 173:-0.046466798 174:0.012012861 175:0.048253041 176:0.015989272 177:-0.012429592 178:-0.047007389 179:-0.054031719 180:0.011763421 181:0.016737688 182:0.024947168 183:0.041095041 184:-0.032039862 185:0.058756005 186:-0.029423077 187:-0.00053923816 188:-0.071205497 189:0.036247496 190:-0.074543856 191:0.021374354 192:0.0086658346 193:0.029307056 194:-0.056443997 195:0.020147838 196:-0.021036524 197:-0.046036065 198:-0.037988413 199:0.040538225 200:-0.015954068 201:-0.0043496285 202:0.049616847 203:-0.034716908 204:0.021857001 205:0.040067744 206:0.030756576 207:-0.058314867 208:-0.012544676 209:0.036320377 210:-0.011611903 211:-0.0054467432 212:-0.034479346 213:0.032943081 214:-0.040593136 215:-0.015241024 216:-0.017372673 217:-0.033841677 218:0.066422321 219:0.057169989 220:0.041751351 221:-0.02657455 222:-0.015309954 223:-0.04933922 224:0.001499948 225:0.0081434594 226:0.040070537 227:-0.012792879 228:0.062516168 229:-0.017840851 230:-0.040089689 231:0.042508319 232:0.064735882 233:-0.029091945 234:-0.028615544 235:0.11265526 236:-0.024875255 237:-0.035149947 238:-0.014506551 239:0.01038374 240:0.021005748 241:-0.030116174 242:0.0020227674 243:0.048886441 244:0.040000208 245:0.046077777 246:-0.0055984957 247:-0.040722463 248:-0.0031502538 249:-0.030051311 250:0.023366297 251:0.068754889 252:0.061011054 253:0.0041910759 254:0.013368541 255:0.012155691 256:-0.04821948 257:0.015324177 258:0.070264183 259:-0.012812873 260:0.0039827679 261:0.052721895 262:-0.071095839 263:0.036028784 264:0.033308368 265:-0.017349705 266:-0.01438119 267:0.024320327 268:-0.012613994 269:-0.053978924 270:0.023320353 271:-0.045197371 272:0.013409332 273:0.081543647 274:-0.037959687 275:0.0058097458 276:-0.058209442 277:0.0086046373 278:-0.042634081 279:-0.051292133 280:-0.079401039 281:-0.046154235 282:-0.012668342 283:-0.021940654 284:-0.019413862 285:-0.070550442 286:0.018499812 287:0.074603543 288:-0.0030239848 289:-0.045019697 290:-0.048172567 291:-0.0047081145 292:-0.043032296 293:-0.061622273 294:0.0072080083 295:0.06101767 296:0.015738769 297:-0.025228219 298:0.019616246 299:-0.067197517 300:-0.038794696 301:0.073883966 302:-0.021619614 303:0.027801981 304:-0.043494835 305:0.019529724 306:-0.0090883207 307:0.0017969231 308:0.04206457 309:0.011185809 310:0.1228001 311:-0.0206348 312:-0.074275635 313:-0.029806221 314:0.072564878 315:0.08001028 316:-0.023992348 317:-0.055072248 318:-0.023833198 319:-0.039496083 320:0.029298926 321:-0.0059639807 322:-0.033257987 323:0.019205388 324:-0.01455445 325:-0.013647091 326:-0.019473638 327:0.034334827 328:-0.010702171 329:0.023977745 330:-0.030085729 331:0.013590145 332:-0.047304925 333:0.010443946 334:0.016582808 335:0.10604157 336:0.0023090965 337:0.016137073 338:0.11713891 339:-0.011716297 340:-0.0086120423 341:-0.036081355 342:0.009289464 343:0.045448106 344:0.056274645 345:-0.054860532 346:0.08017724 347:0.073117711 348:0.043861464 349:0.041634358 350:-0.013267319 351:0.045446359 352:-0.017457174 353:0.082402773 354:-0.051009718 355:-0.041459393 356:0.022248371 357:-0.0035451469 358:-0.02091223 359:-0.077697359 360:-0.031384081 361:-0.0048238952 362:-0.018869976 363:-0.010396139 364:0.054341 365:0.0095617687 366:-0.027480574 367:0.10148209 368:-0.024234818 369:0.031942632 370:0.070426524 371:-0.046402108 372:0.017695991 373:0.08246246 374:-0.018320234 375:-0.051609926 376:0.02566628 377:0.095341936 378:-0.047692016 379:0.029834565 380:0.0023873164 381:-0.0091211796 382:-0.058439795 383:-0.068448022 384:-0.024576768 385:-0.011635331 386:0.06020711 387:0.040511336 388:-0.070405573 389:-0.045653969 390:-0.018946221 391:-0.025176413 392:0.079546586 393:-0.089813426 394:0.0027663684 395:0.03569014 396:0.088650487 397:0.049988974 398:0.026873773 399:-0.019704618 400:0.0041395589 401:-0.017262317 402:0.0313082 403:0.034138981 404:0.049270611 405:-0.0043232748 406:-0.02291256 407:-0.062839217 408:-0.01972167 409:-0.0054092859 410:0.044587184 411:0.037577864 412:0.044569172 413:-0.05631768 414:0.035509218 415:-0.010041917 416:-0.10096942 417:-0.030175822 418:-0.034535781 419:0.073052481 420:0.0054991497 421:0.0018326299 422:0.073544882 423:-0.040655069 424:-0.062406451 425:0.023809403 426:-0.010112813 427:-0.0057375804 428:-0.067400247 429:-0.0049753306 430:-0.030808646 431:0.027616382 432:0.023086324 433:-0.00090634887 434:0.01166763 435:-0.073127553 436:0.026356868 437:0.038261775 438:0.084028699 439:0.049325325 440:0.014086977 441:-0.066662192 442:-0.0031196373 443:-0.0098639047 444:-0.052191366 445:0.055383865 446:0.008986936 447:-0.030014094 448:-0.019070089 449:0.020158213 450:-0.053333458 451:0.021003762 452:-0.0030798332 453:0.072339721 454:0.01450665 455:0.044309955 456:0.049863551 457:0.0070469547 458:0.056372564 459:-0.0025844788 460:-0.037346315 461:-0.021037498 462:0.0015977786 463:0.039877389 464:-0.021816567 465:-0.0015824718 466:-0.002073183 467:0.010652287 468:0.00017663848 469:-0.0073689227 470:-0.0017587114 471:-0.024048178 472:-2.2447794e-05 473:0.044331774 474:-0.020836357 475:-0.019955847 476:-0.016585434 477:0.019352999 478:-0.067867674 479:-0.052040715 480:-0.052472729 481:0.04712373 482:0.066052727 483:0.058745366 484:0.013609114 485:-0.0016890265 486:0.089137465 487:-0.062218305 488:-0.023127083 489:0.049831625 490:0.028592303 491:-0.084191613 492:-0.012770907 493:-0.026259022 494:0.0062523354 495:0.034207676 496:0.0037401924 497:-0.045302574 498:-0.0086145997 499:0.042174883 500:0.06109298 501:-0.00098093017 502:-0.081617028 503:0.0013145469 504:-0.08483354 505:0.012000337 506:0.019840078 507:0.038241345 508:0.10485577 509:0.0006512056 510:-0.047315829 511:0.0015578739 512:-0.070895977 
-4 1:0.096499473 2:-0.028304063 3:0.03290524 4:0.02935921 5:-0.056279626 6:0.039993852 7:-0.049727585 8:0.053983968 9:-0.079196982 10:-0.070936143 11:0.0086558908 12:-0.053603612 13:-0.026765952 14:0.028515458 15:0.041344412 16:-0.036872838 17:0.007601439 18:0.085924461 19:-0.038345747 20:-0.016318237 21:0.015264319 22:-0.10281141 23:0.021822417 24:0.01675852 25:0.0039344104 26:0.015150924 27:0.012921275 28:0.027991056 29:0.0050238203 30:0.039504502 31:-0.0025780003 32:-0.090311289 33:-0.08481165 34:0.025014648 35:-0.019634517 36:0.0060024736 37:-0.037982412 38:0.012154262 39:-0.008341454 40:0.020830797 41:-0.050220016 42:0.10896281 43:-0.068264984 44:-0.016847648 45:0.11263093 46:0.045529544 47:0.0072579067 48:-0.034054782 49:0.047945261 50:-0.0045962445 51:-0.010788767 52:0.039436862 53:-0.034637593 54:0.035532329 55:-0.05135395 56:0.017586382 57:0.01687799 58:-0.078388788 59:-0.013429222 60:0.045905698 61:-0.054277111 62:-0.044703186 63:0.016403358 64:0.03214138 65:0.06799449 66:-0.0085407943 67:0.0043646386 68:0.0029559101 69:0.029788423 70:-0.05815943 71:-0.05652947 72:0.094649017 73:-0.042468261 74:-0.06289497 75:0.055209987 76:-0.021227032 77:0.0059874994 78:-0.018214468 79:0.011268177 80:-0.0086614341 81:-0.011017365 82:-0.02999961 83:0.11228473 84:0.023327775 85:-0.0086646546 86:0.099867135 87:0.0052885138 88:0.01577561 89:0.074654184 90:0.063278966 91:-0.016128093 92:-0.047909182 93:-0.06226578 94:-0.033167902 95:-0.030776223 96:-0.007186329 97:-0.010449025 98:-0.032791346 99:0.04386973 100:-0.036062486 101:0.027567932 102:-0.045092914 103:-0.0089328382 104:0.069351956 105:0.023254011 106:0.02033172 107:-0.038805824 108:-0.025317123 109:-0.029666135 110:-0.071852975 111:-0.016616004 112:0.074907333 113:0.044652052 114:0.029945653 115:0.023181787 116:0.0020027356 117:-0.077485085 118:-0.078363664 119:-0.013289714 120:0.0085779391 121:0.022779536 122:0.025122151 123:0.0069125816 124:-0.042188574 125:0.066419356 126:-0.051538847 127:-0.11386374 128:0.03681799 129:0.02293887 130:-0.044057425 131:0.022731593 132:0.0066520097 133:-0.043375891 134:0.056840722 135:0.10566789 136:0.0073447381 137:0.0041199764 138:-0.041067813 139:-0.04970948 140:0.022140235 141:0.044313673 142:0.098607242 143:-0.012907501 144:-0.0023568459 145:0.033721939 146:-0.01404706 147:0.040739235 148:0.060616039 149:-0.053292837 150:0.069071412 151:-0.061408404 152:-0.050111707 153:0.017031815 154:0.032269876 155:-0.044131283 156:0.021607464 157:0.044590168 158:-0.019144811 159:-0.0091951955 160:-0.10325816 161:-0.012039183 162:0.025891073 163:-0.1285603 164:-0.011197054 165:0.034379736 166:0.096398167 167:-0.028564174 168:-0.00033655696 169:-0.059101727 170:-0.018405039 171:0.016442565 172:0.021721642 173:0.0056756688 174:0.0053676115 175:0.049896374 176:0.0030303716 177:-0.021085806 178:-0.055093028 179:-0.073143154 180:0.032385729 181:0.054599684 182:-0.019174436 183:0.068136364 184:0.010176363 185:0.034689538 186:-0.052364692 187:-0.029027626 188:-0.077701859 189:0.051918905 190:-0.083116591 191:-0.045145672 192:0.032564748 193:0.036503848 194:-0.023867646 195:-0.034592785 196:-0.024916997 197:-0.052817822 198:-0.023279546 199:0.0065772627 200:0.014554209 201:-0.0254054 202:0.048904646 203:-0.020133885 204:0.035889212 205:0.028414678 206:-0.0081039537 207:-0.071007863 208:0.014795941 209:0.029524045 210:0.010169735 211:0.020252766 212:-0.016811706 213:0.037644811 214:-0.050105628 215:-0.013186936 216:-0.019295732 217:-0.02870751 218:0.053172275 219:0.062987082 220:0.026816759 221:0.025162345 222:-0.036427628 223:-0.048430793 224:-0.01551898 225:-0.010681753 226:0.035904203 227:-0.010484168 228:0.028606785 229:-0.040586509 230:-0.069471225 231:0.024908546 232:0.080902033 233:-0.027156156 234:-0.024220815 235:0.12144079 236:-0.040117685 237:0.01787694 238:0.006067324 239:0.02735766 240:0.035260029 241:-0.018101724 242:0.0096316785 243:0.030656938 244:0.050876547 245:-0.013970863 246:0.023811534 247:-0.02079851 248:0.025584202 249:-0.02589602 250:0.013512854 251:0.044101905 252:0.035251196 253:0.04423907 254:0.019936912 255:0.0056540715 256:-0.022418212 257:-0.017115647 258:0.035677701 259:-0.0075345663 260:0.013409542 261:0.025209604 262:-0.062855348 263:0.027066763 264:-0.00012877272 265:-0.041046664 266:0.01234236 267:0.033858594 268:-0.046340715 269:-0.068688817 270:-0.0078139585 271:-0.040879764 272:0.01814891 273:0.060114894 274:-0.060726821 275:0.026095724 276:-0.061832875 277:-0.036162086 278:-0.042413726 279:-0.037386991 280:-0.024203522 281:-0.075028032 282:-0.084366553 283:-0.021680294 284:0.038336579 285:-0.03819555 286:0.052967947 287:0.090107635 288:0.0086529423 289:-0.02478203 290:-0.021022707 291:0.024482252 292:-0.061110467 293:-0.017979281 294:0.024820607 295:0.04332583 296:0.0088336766 297:-0.068875089 298:0.04309769 299:-0.026977301 300:-0.062788121 301:0.033194181 302:-0.06464456 303:0.028054969 304:0.00028163742 305:0.025706362 306:-0.0087602036 307:0.014471629 308:0.065913104 309:0.040481258 310:0.081140086 311:-0.056069624 312:-0.053799178 313:-0.0083649978 314:0.044380706 315:0.064988635 316:-0.0061883205 317:-0.037514143 318:-0.040886667 319:-0.027842185 320:0.074300371 321:-0.025155185 322:-0.0016483554 323:0.048861045 324:-0.056021363 325:-0.027468482 326:-0.035348807 327:0.0094402321 328:-0.01460182 329:0.019245604 330:0.01915176 331:-0.01035658 332:-0.059443977 333:-0.014946488 334:0.0097620571 335:0.067293346 336:0.024057712 337:0.0059515997 338:0.11680356 339:-0.033812709 340:0.013632022 341:-0.055229664 342:-0.0050625629 343:0.03419501 344:0.0687939 345:-0.028983872 346:0.0708514 347:0.060947124 348:0.058231786 349:0.042663287 350:-0.010654097 351:0.032121513 352:-0.031634089 353:0.079546496 354:-0.017151274 355:0.0092228483 356:0.0051311576 357:-0.056042906 358:-0.035680309 359:-0.096713297 360:-0.017079178 361:-0.010217901 362:-0.021945247 363:0.011658682 364:0.044141527 365:-0.018760871 366:-0.019184344 367:0.094809599 368:-0.0049107196 369:0.032995898 370:0.057500601 371:0.00075613754 372:0.041388243 373:0.10129328 374:-0.03181351 375:-0.086382732 376:0.0035453211 377:0.098431587 378:-0.050840635 379:0.014669277 380:0.0044691963 381:-0.0088727465 382:-0.057649314 383:-0.061090432 384:0.01331747 385:0.0027031605 386:0.035575483 387:0.01003628 388:-0.059321947 389:-0.025616059 390:0.011685711 391:-0.069256857 392:0.097180791 393:-0.033519626 394:0.020058377 395:-0.036129817 396:0.081991889 397:0.00096561597 398:-0.0019159336 399:-0.0083201639 400:-0.022396913 401:0.012976746 402:0.0075399922 403:0.0061857463 404:0.041900828 405:0.030100027 406:-0.01667795 407:-0.037160642 408:-0.00017171685 409:-0.043051388 410:0.042961013 411:-0.010599747 412:0.0055870553 413:-0.01697493 414:0.060610194 415:0.0026142525 416:-0.09527941 417:0.0084498366 418:-0.059757836 419:0.070025437 420:0.013638185 421:-0.013698429 422:0.059807461 423:-0.032603279 424:-0.084728196 425:0.0051563014 426:0.029915743 427:0.0010365165 428:-0.049517702 429:-0.0062902062 430:-0.028952884 431:0.071630567 432:0.0065044854 433:-0.00096352899 434:0.0036175332 435:-0.051760279 436:0.044155363 437:0.022728544 438:0.057848159 439:0.026704362 440:0.030138858 441:-0.052044041 442:0.039631303 443:-0.030000908 444:-0.0077300477 445:0.066171363 446:-0.00085303438 447:0.0038200745 448:-0.021541532 449:0.011124984 450:-0.034807481 451:-0.011555963 452:0.0067860871 453:0.088002436 454:0.033262309 455:0.049130041 456:0.018969154 457:0.05142403 458:0.057886995 459:0.019469932 460:-0.01556163 461:-0.012434601 462:0.021325866 463:0.035375454 464:-0.029754784 465:0.014187846 466:-0.0099256337 467:0.029215526 468:0.011538019 469:0.0094482852 470:0.041378342 471:-0.022703016 472:-0.019036114 473:0.013509467 474:0.019434895 475:0.019356806 476:-0.039421801 477:0.011717876 478:-0.094382584 479:-0.0090522114 480:-0.013148385 481:0.054240927 482:0.046272036 483:0.036968581 484:0.0085945167 485:-0.023251371 486:0.10671627 487:-0.015885388 488:-0.024136402 489:0.059993163 490:0.073739775 491:-0.079412937 492:-0.0022505082 493:0.015856666 494:0.057257302 495:0.026251767 496:-0.00029485696 497:-0.025224399 498:0.02443702 499:0.057585977 500:0.045738559 501:0.030645279 502:-0.059138991 503:0.0052282843 504:-0.077089377 505:0.0016520375 506:0.016156007 507:0.0080764359 508:0.12918268 509:0.012764294 510:-0.065932654 511:0.011314088 512:-0.031866629 
-4 1:0.067313798 2:0.0042925351 3:0.068831518 4:0.054424204 5:-0.012419526 6:-0.0010057034 7:-0.07424739 8:0.079948775 9:-0.031708922 10:-0.015231634 11:-0.023722291 12:0.051827241 13:0.012401629 14:0.053288043 15:-0.036762726 16:-0.0020053859 17:0.024147181 18:0.079054385 19:-0.016234789 20:-0.056683578 21:-0.0013881762 22:-0.069930024 23:0.010472069 24:-0.01630431 25:0.0032529051 26:-0.042060602 27:0.00014654399 28:0.044912279 29:0.051829457 30:0.010678607 31:0.0056050434 32:-0.13994227 33:-0.029138634 34:-0.051748406 35:0.0053856587 36:0.037010364 37:-0.048519123 38:-0.0042684968 39:-0.07886599 40:0.065724142 41:-0.077266335 42:0.12848338 43:0.064938702 44:-0.010233904 45:0.027525114 46:0.079882167 47:0.0022646626 48:0.0061413706 49:0.013250592 50:-0.026623961 51:0.0063757361 52:0.046005413 53:0.035641599 54:0.011671295 55:-0.01839369 56:-0.00049045571 57:0.06255275 58:-0.019791769 59:-0.031685781 60:-0.0095873429 61:-0.062550195 62:-0.040417492 63:0.023847265 64:0.039353803 65:0.0031273717 66:0.009572275 67:-0.03537342 68:0.03634502 69:0.064271428 70:-0.038243506 71:0.0050776675 72:0.041683186 73:0.0053376066 74:-0.082789756 75:0.04105043 76:-0.065799505 77:-0.010444657 78:0.030134831 79:0.001996441 80:0.019016165 81:-0.022361534 82:-0.071842551 83:0.070433155 84:0.028272897 85:-0.042475082 86:0.095739342 87:-0.018556848 88:0.036311671 89:0.037902892 90:0.069376007 91:0.0013184962 92:0.0067092539 93:-0.037166864 94:-0.075918168 95:-0.044859696 96:-0.0054615359 97:0.015923243 98:-0.0060496652 99:0.047082033 100:0.021459896 101:0.029207043 102:-0.016540537 103:-0.017903831 104:0.052826021 105:0.030795611 106:0.01016135 107:-0.0068755629 108:-0.049691297 109:0.058380265 110:0.0043770373 111:-0.015536799 112:0.081879318 113:0.023256646 114:0.037747409 115:0.0089766979 116:-0.021387128 117:-0.022796646 118:-0.052939784 119:-0.030514013 120:-0.030860832 121:0.0075991452 122:0.013056153 123:-0.049085546 124:-0.092847437 125:0.055589121 126:-0.040610246 127:-0.060371347 128:0.051811893 129:0.019448346 130:0.045471687 131:-0.011539044 132:0.021614175 133:0.037554484 134:0.052771427 135:0.074203022 136:0.065308154 137:-0.034666829 138:0.002838338 139:0.034992266 140:0.0015712023 141:0.036985043 142:0.041056037 143:0.039010271 144:-0.0044797212 145:0.021174997 146:-0.0015239056 147:0.036517799 148:0.035864022 149:0.020110868 150:0.069749728 151:0.037853558 152:-0.06625358 153:0.0026188623 154:0.096531399 155:-0.027295353 156:0.022546753 157:0.0075516691 158:-0.021739153 159:-0.050530937 160:-0.072835162 161:0.002186751 162:0.017962163 163:-0.085927144 164:0.048376121 165:0.037913017 166:0.089039892 167:-0.031992242 168:-0.019607032 169:-0.087747298 170:-0.0071878294 171:-0.013001305 172:-0.067550495 173:-0.0051146499 174:0.052455738 175:0.046584953 176:-0.042025384 177:0.045557927 178:-0.030800346 179:-0.061592013 180:-0.029668216 181:-0.055028226 182:-0.035319012 183:0.022508718 184:-0.048590694 185:0.011647387 186:-0.00807421 187:-0.014079304 188:-0.072795875 189:0.04207845 190:-0.042133365 191:-0.027440969 192:0.13251387 193:-0.0033599904 194:-0.036686007 195:-0.020566003 196:0.033477701 197:-0.056294966 198:-0.033423282 199:0.05588159 200:-0.02067589 201:-0.059955247 202:0.061436798 203:-0.036247373 204:-0.040958088 205:0.02885595 206:-0.0090924781 207:-0.049259517 208:0.048230063 209:0.014147277 210:-0.034311235 211:-0.074849062 212:0.016846379 213:0.084452868 214:-0.015120774 215:0.021488396 216:-0.017225148 217:-0.03832335 218:0.049933895 219:0.0043882923 220:0.067232184 221:-0.010021252 222:-0.036314171 223:0.0090811336 224:-0.0078909667 225:-0.02459038 226:0.00032864069 227:-0.07586167 228:-0.038508318 229:-0.0046017384 230:-0.046374347 231:0.06043379 232:0.06652569 233:0.022719264 234:-0.04707725 235:0.081886917 236:-0.098692961 237:0.062840141 238:0.038348895 239:0.044828977 240:0.017838201 241:-0.023619436 242:-0.024147529 243:0.070562243 244:0.043180689 245:-0.064615943 246:0.012799915 247:0.0057801013 248:0.022638051 249:-0.041804999 250:0.032907031 251:0.05005474 252:-0.027027907 253:0.066711545 254:0.063717268 255:-0.039576318 256:0.0422391 257:-0.027594674 258:0.055531397 259:0.029714374 260:0.0099713458 261:-0.013315503 262:-0.0050779963 263:0.017720506 264:-0.0035689466 265:0.00066178024 266:-0.05419248 267:-0.035264794 268:-0.019340532 269:-0.048662703 270:0.06280192 271:-0.0098805139 272:-0.005131728 273:0.060190286 274:-0.056922998 275:-0.028554734 276:-0.082033619 277:0.010159426 278:-0.002062517 279:0.0076764016 280:0.029005218 281:-0.028792918 282:-0.0499966 283:-0.02960768 284:0.016641686 285:-0.054690067 286:0.020770648 287:0.02679923 288:0.018404497 289:0.028700059 290:-0.0078701032 291:0.03354479 292:-0.050241146 293:-0.036335062 294:0.046542913 295:0.079956286 296:-0.011650751 297:-0.033085201 298:0.037238903 299:-0.011210537 300:-0.026695991 301:0.01627622 302:0.0057972893 303:0.028905008 304:-0.025069196 305:0.052151896 306:-0.016140113 307:0.064318255 308:0.015782341 309:0.026320681 310:0.026064118 311:-0.039265651 312:-0.0094438624 313:-0.10043488 314:0.076703571 315:0.12604059 316:-0.0056687491 317:0.036838241 318:-0.06697654 319:-0.023316164 320:0.019604996 321:0.015019626 322:-0.02136742 323:0.046380483 324:-0.0013549328 325:-0.080232583 326:0.059650257 327:-0.035716455 328:0.0087292055 329:0.018463135 330:0.0007948837 331:-0.0012358668 332:-0.011409732 333:-0.030474208 334:-0.075159632 335:0.034608483 336:0.054930456 337:0.017450854 338:0.12488564 339:-0.075794883 340:0.030865207 341:-0.087842077 342:0.015970027 343:0.0081034377 344:0.066541113 345:-0.019185536 346:0.049737353 347:0.00084995863 348:0.038119983 349:0.12439976 350:-0.023273986 351:0.03728969 352:0.003650547 353:0.081976138 354:-9.0816349e-05 355:-0.03904523 356:-0.1010375 357:-0.049277626 358:0.095445231 359:-0.047902439 360:-0.028855976 361:0.011935263 362:0.011613777 363:-0.039519656 364:0.030063022 365:0.032137886 366:0.013972189 367:0.049438458 368:0.030388467 369:0.035205439 370:0.066349812 371:-0.043734524 372:-0.022644876 373:0.059633929 374:0.037043504 375:-0.047779422 376:0.021973817 377:0.045032963 378:-0.036155559 379:0.0065438291 380:0.041928239 381:-0.0078572817 382:0.0097686201 383:-0.067623757 384:0.022443226 385:-0.0055756099 386:0.058165178 387:-0.022455938 388:-0.080659747 389:-0.034733485 390:-0.040568005 391:-0.010290011 392:0.063414909 393:-0.013835604 394:0.07531403 395:-0.003005635 396:0.048448276 397:0.026528392 398:0.018271931 399:0.01727476 400:0.0018091974 401:0.043666966 402:-0.0086271316 403:-0.0032528031 404:0.037229713 405:0.055083536 406:-0.015663644 407:-0.031264864 408:0.039993923 409:-0.017878963 410:0.058783565 411:-0.0072108652 412:0.048779387 413:-0.02450911 414:0.063180216 415:0.012929495 416:-0.058355682 417:-0.0018617598 418:-0.036677204 419:0.033250522 420:0.061373539 421:0.0055840937 422:0.091395184 423:-0.014531507 424:-0.079672143 425:0.0059556332 426:0.063408025 427:0.0084241023 428:-0.03087472 429:0.033173554 430:0.031869095 431:2.0288406e-05 432:0.064731859 433:0.0067615672 434:0.032439023 435:-0.028168766 436:0.073573351 437:-0.029089345 438:0.035350185 439:0.0086958632 440:0.016353054 441:0.043288138 442:-0.00087054097 443:0.026351903 444:-0.053306423 445:0.03841202 446:0.0098376917 447:-0.045139346 448:-0.02997403 449:-0.033916026 450:-0.063937768 451:-0.033965565 452:0.033623494 453:0.061619449 454:0.029694954 455:0.063632421 456:0.023424212 457:0.028913906 458:0.008962594 459:0.01191032 460:-0.063276999 461:0.013508856 462:0.022725914 463:0.060297243 464:-0.014091301 465:-0.020063838 466:-0.026856445 467:0.056069486 468:-0.0033274193 469:-0.07341373 470:0.051700182 471:-0.014661719 472:-0.02402927 473:0.054071195 474:-0.027738372 475:-0.0029370177 476:0.0012942943 477:0.022535617 478:-0.088844895 479:0.013276263 480:0.032317933 481:-0.0017097631 482:0.033686444 483:0.034216452 484:-0.026092026 485:-0.010295177 486:0.096496098 487:-0.038478408 488:0.026305459 489:0.006483783 490:0.03975812 491:-0.049289152 492:-0.032237127 493:-0.016260391 494:0.03319009 495:0.055871192 496:-0.02445823 497:-0.024668956 498:0.080300637 499:-0.018844813 500:0.047441237 501:-0.0016785373 502:-0.033885133 503:0.0069226311 504:-0.048761588 505:-0.046578899 506:0.047267877 507:0.0086556813 508:0.087582 509:0.024577497 510:-0.087038696 511:-0.020622194 512:-0.0123687 
